9996 16
the -0.020731978 0.66315454 -0.011936544 -0.043997634 -0.030923046 -0.033008754 -0.019928742 -0.03251442 -0.027916504 -0.03261103 -0.041603148 -0.023973199 -0.033579398 -0.04377985 -0.03771594 -0.021306492
and -0.020368187 0.0038896645 -0.014243642 -0.04182546 -0.03001669 -0.019304907 -0.018168246 -0.037776124 -0.016761055 -0.027446905 -0.03394129 -0.031639416 -0.023067176 -0.031136645 -0.040889855 -0.020189257
a -0.028440833 -0.041046668 -0.03128588 -0.049594056 -0.049664546 -0.04764632 -0.028905023 -0.020717189 -0.026266469 -0.028553797 -0.031302594 -0.024749205 -0.028506458 -0.028626084 -0.04109479 -0.025916182
of -0.029274883 -0.019979596 -0.01589808 -0.049825408 -0.034287773 -0.026758647 -0.023835443 -0.025708674 -0.038538396 -0.022976268 -0.03706935 -0.024691688 -0.04788549 -0.035232715 -0.03155031 -0.018958721
to -0.016839178 0.0002873203 -0.0271011 -0.024887478 -0.028997479 -0.018404294 -0.023459116 -0.021750558 -0.022630386 -0.024829036 -0.034511875 -0.02785919 -0.028301192 -0.03353454 -0.031927023 -0.025485361
is -0.016549863 0.0064559802 -0.023941977 -0.043944944 -0.03439721 -0.018026186 -0.048688915 -0.03404566 -0.012854097 -0.025106309 -0.030117447 -0.031113937 -0.025544645 -0.02893308 -0.027688827 -0.025691628
br -0.02600416 0.01711892 -0.011290859 -0.014793858 -0.028846096 -0.030684067 -0.017953841 -0.020873208 -0.020112438 -0.036279615 -0.036278162 -0.02761845 -0.026075043 -0.03045618 -0.037528288 -0.023931045
in -0.024074046 0.01347569 -0.030310584 -0.017853307 -0.033584516 -0.030084617 -0.025322791 -0.02830633 -0.027061356 -0.024400102 -0.033691134 -0.033100534 -0.028435672 -0.042475294 -0.038837265 -0.02059582
it -0.021983372 -0.048273146 -0.015374269 -0.023600357 -0.03282255 -0.023606928 -0.01822236 -0.037549984 -0.027162762 -0.041192412 -0.03363756 -0.025491524 -0.025445903 -0.03961319 -0.03337121 -0.03328346
i -0.01762736 0.011579202 -0.03864894 -0.01678319 -0.027348407 -0.018615192 -0.038025808 -0.024326243 -0.011094323 -0.023602443 -0.03193038 -0.03202536 -0.030954715 -0.031994835 -0.03135138 -0.017801164
this -0.023312658 -0.04673736 -0.031705715 -0.016763506 -0.045390625 -0.019079972 -0.020978821 -0.030103065 -0.01637528 -0.024374666 -0.028734064 -0.03482573 -0.041209877 -0.038576737 -0.036144014 -0.018546589
that -0.0178064 -0.04347911 -0.03538084 -0.030473722 -0.031477895 -0.023287442 -0.028348947 -0.041553367 -0.009729907 -0.023625303 -0.042663764 -0.024290489 -0.04307388 -0.03215596 -0.039706625 -0.0205603
was -0.034971416 0.0069093592 -0.0114595955 -0.045812905 -0.030349486 -0.024666542 -0.019267801 -0.038395457 -0.03262198 -0.024406193 -0.03133409 -0.026305087 -0.03209818 -0.03937993 -0.026628055 -0.03065708
as -0.021646604 0.005466245 -0.021020167 -0.02875719 -0.028498346 -0.017708613 -0.018752653 -0.03994306 -0.025816083 -0.025597777 -0.03704716 -0.025808658 -0.02831143 -0.03893777 -0.037926912 -0.02189192
for -0.028822398 -0.03969562 -0.00776558 -0.04181974 -0.03140815 -0.026478553 -0.025781255 -0.043662883 -0.02259938 -0.046258915 -0.034793463 -0.02498061 -0.024087187 -0.024510512 -0.029712815 -0.023165215
with -0.031521842 -0.042414237 -0.04874302 -0.021455415 -0.03633285 -0.01745343 -0.03146573 -0.022769941 -0.010071851 -0.03747296 -0.030228008 -0.025992228 -0.028318904 -0.023948079 -0.03084615 -0.037581813
movie -0.02350957 0.3849396 -0.01272089 -0.03974759 -0.033368193 -0.018489193 -0.035985664 -0.039018888 -0.03796325 -0.029763475 -0.04450051 -0.041967034 -0.033816352 -0.041264117 -0.030053608 -0.021261318
but -0.024300614 -0.011961222 -0.013401906 -0.032550894 -0.027918987 -0.03872653 -0.027039338 -0.020253982 -0.022283932 -0.03395912 -0.029723037 -0.03590896 -0.03651214 -0.040286127 -0.027796296 -0.019810466
film -0.027266158 -0.04871259 -0.015550245 -0.018795233 -0.027711384 -0.026615648 -0.01971419 -0.019498166 -0.017986465 -0.047192432 -0.02945659 -0.028125841 -0.028916132 -0.026571423 -0.033677854 -0.021890398
on -0.025839496 -0.048206877 -0.02001156 -0.02659641 -0.03663224 -0.024444891 -0.02691398 -0.024206702 -0.011383965 -0.028220208 -0.025799748 -0.026160534 -0.03137957 -0.029569734 -0.027896512 -0.032487594
not -0.023338651 0.008694965 -0.0125331795 -0.022158472 -0.035576273 -0.029572845 -0.025498362 -0.019689545 -0.016548904 -0.027517209 -0.039700747 -0.031578127 -0.028314566 -0.031509593 -0.043808937 -0.021722944
you -0.018849298 0.002877873 -0.049262654 -0.03248515 -0.036883105 -0.029967144 -0.017280383 -0.03586728 -0.015627705 -0.021250533 -0.027468592 -0.042319912 -0.040606543 -0.03301751 -0.030812582 -0.024114715
are -0.018747622 0.013885524 -0.017477132 -0.04398005 -0.02861244 -0.016342882 -0.03026136 -0.042940583 -0.010846577 -0.031701062 -0.036936875 -0.03783958 -0.024952851 -0.03403914 -0.028674344 -0.023908023
his -0.040942572 -0.0027294382 -0.021080637 -0.015099267 -0.030217264 -0.021376133 -0.01676642 -0.0238736 -0.012186075 -0.022957075 -0.038167834 -0.032574095 -0.028053975 -0.029497841 -0.028611027 -0.018519897
have -0.031059409 0.0038483187 -0.023612471 -0.015386513 -0.028552808 -0.01832916 -0.028403092 -0.024448376 -0.042271722 -0.032131314 -0.03361845 -0.024528258 -0.041089702 -0.027415602 -0.03158927 -0.033928253
he -0.019545078 -0.042872716 -0.023709131 -0.02282923 -0.028618833 -0.029848112 -0.04651853 -0.019271921 -0.009247691 -0.024200978 -0.041317202 -0.02476436 -0.024050402 -0.027645124 -0.030998334 -0.019604033
be -0.032647844 0.013978604 -0.01376461 -0.020861743 -0.02988062 -0.029251406 -0.01933144 -0.027233576 -0.00962585 -0.02497059 -0.03615984 -0.041548945 -0.03422837 -0.030872112 -0.028788159 -0.03157761
one -0.023957763 -0.014966298 -0.015476331 -0.017449133 -0.03278037 -0.02511531 -0.023573441 -0.029173132 -0.010519185 -0.031009197 -0.026309617 -0.023759905 -0.023715785 -0.037905324 -0.029302526 -0.031444952
all -0.02068788 0.007442711 -0.012718931 -0.029921824 -0.032166485 -0.02632617 -0.036467124 -0.022204854 -0.0106671015 -0.039110344 -0.027518798 -0.024576455 -0.024509981 -0.039386593 -0.03630701 -0.024181705
at -0.017409515 0.0022989996 -0.019172397 -0.03315603 -0.042425312 -0.017027453 -0.028934699 -0.020341648 -0.017791608 -0.031203344 -0.033941202 -0.024027215 -0.021622034 -0.024613705 -0.038246058 -0.023904731
by -0.024359342 -0.043851472 -0.015800517 -0.017633654 -0.029950686 -0.046420194 -0.030574262 -0.021893708 -0.011312306 -0.04662646 -0.043284822 -0.03962078 -0.024221389 -0.025264919 -0.035444237 -0.039323043
an -0.028775638 -0.019622577 -0.012316509 -0.017726943 -0.042166412 -0.019803159 -0.04672556 -0.027871897 -0.020858455 -0.032435775 -0.03352865 -0.029419318 -0.027192408 -0.029404566 -0.027217835 -0.034829117
they -0.021623015 -0.009882472 -0.028446004 -0.0446002 -0.028545322 -0.017906865 -0.027771652 -0.020081514 -0.04669757 -0.02541007 -0.027834771 -0.028638132 -0.023481488 -0.046998765 -0.026278812 -0.03263434
who -0.03814298 0.00915017 -0.010479021 -0.014697978 -0.03729793 -0.025475694 -0.029081928 -0.03457334 -0.025450446 -0.029201096 -0.02736046 -0.03386265 -0.04585593 -0.038977336 -0.042127203 -0.037631214
so -0.017751692 -0.009629954 -0.028492307 -0.033667296 -0.027917247 -0.015898652 -0.017520566 -0.042631235 -0.010553475 -0.024117762 -0.03622493 -0.026047103 -0.026645934 -0.028739715 -0.033044428 -0.01838845
from -0.033865515 0.2236131 -0.01831611 -0.047133137 -0.036982473 -0.019129967 -0.044353914 -0.022794968 -0.026077366 -0.031579338 -0.033578582 -0.037074808 -0.023767889 -0.030732578 -0.028090663 -0.031834543
like -0.01655995 -0.037597515 -0.015493697 -0.019918839 -0.027814766 -0.025507582 -0.046379615 -0.014992015 -0.010235617 -0.023808349 -0.027735015 -0.028660547 -0.035028327 -0.049030136 -0.04245523 -0.018122045
her -0.015591977 -0.008812942 -0.020645654 -0.0461076 -0.03212864 -0.021728624 -0.018254187 -0.02963618 -0.012591045 -0.024902718 -0.03774988 -0.030018358 -0.02767323 -0.03529645 -0.0269494 -0.039097857
or -0.023568593 -0.03904487 -0.013479363 -0.020957304 -0.04058547 -0.023002246 -0.025856156 -0.019499628 -0.010091756 -0.03370182 -0.035880245 -0.0489092 0.27652782 -0.035354484 -0.04303879 -0.0214348
just -0.032693606 0.08989712 -0.047992278 -0.026659286 -0.03542542 -0.03271275 -0.02036074 -0.022710571 -0.008755194 -0.02592477 -0.043902032 -0.044406187 -0.037558187 -0.031672355 -0.029614031 -0.025037624
about -0.031552564 -0.0097446665 -0.017035078 -0.017026542 -0.03282038 -0.016436975 -0.021401597 -0.03259215 -0.016963234 -0.026885495 -0.031036949 -0.02561854 -0.025412507 -0.03194934 -0.029751647 -0.021133471
it's -0.024359738 0.013246942 -0.047080304 -0.014114287 -0.03571147 -0.019734828 -0.023176963 -0.039190102 -0.012399502 -0.030711401 -0.032467782 -0.041198384 -0.046820354 -0.027496053 -0.027148295 -0.030884456
out -0.024803095 -0.03357675 -0.04882876 -0.024833536 -0.038739834 -0.029607106 -0.026061917 -0.042045522 -0.015848124 -0.023881238 -0.032017387 -0.02679819 -0.038778674 -0.02810396 -0.03791965 -0.019593665
has -0.02082237 -0.018257927 -0.02892906 -0.022365617 -0.041216005 -0.020195117 -0.02034835 -0.041731287 -0.0089041265 -0.04564594 -0.027885059 -0.023918092 -0.02824456 -0.026782695 -0.04249703 -0.043859016
if -0.021984728 0.003467364 -0.028532136 -0.030299878 -0.030955683 -0.018864835 -0.021534765 -0.018265536 -0.020656098 -0.02393203 -0.036021713 -0.025005525 -0.024706738 -0.028293114 -0.03210987 -0.036486972
some -0.016447032 -0.0001678825 -0.029595768 -0.014093864 -0.044550933 -0.02921261 -0.04527689 -0.019684685 -0.018698663 -0.027203118 -0.03059294 -0.031236459 -0.037580438 -0.028412743 -0.03983662 -0.018984709
there -0.017278016 0.0060406406 -0.027473195 -0.019920137 -0.044580724 -0.018956719 -0.03047252 -0.025005464 -0.025134599 -0.031299826 -0.036768474 -0.023995617 -0.031632643 -0.025088651 -0.028001877 -0.030117968
what -0.026699606 -0.037410237 -0.011024701 -0.020622727 -0.038262516 -0.017122038 -0.044734478 -0.047771644 -0.02151134 -0.023252025 -0.032789093 -0.046962775 -0.025410313 -0.023963619 -0.030000973 -0.019209614
good -0.034294736 0.00025570393 -0.017226083 -0.016644495 -0.028207576 -0.020446587 -0.03656758 -0.020076802 -0.020984229 -0.0472718 -0.030680139 -0.02731832 -0.043440223 -0.025830172 -0.039425712 -0.020569857
more -0.020992957 0.05991169 -0.02985834 -0.020607999 -0.032252505 -0.018099923 -0.032738827 -0.026094507 -0.015451133 -0.030768996 -0.028509628 -0.035431378 -0.026508158 -0.04282966 -0.027841901 -0.030028641
when -0.017657403 -0.041796554 -0.016885163 -0.02105986 -0.038617626 -0.022916725 -0.023244603 -0.039793026 -0.013690012 -0.031379197 -0.04201565 -0.038527586 -0.028118165 -0.02896113 -0.03557836 -0.022481639
very -0.024161065 -0.024573362 -0.021224141 -0.014132235 -0.03220471 -0.031743623 0.043402668 -0.024370896 -0.021680327 -0.03082787 -0.03688606 -0.033464123 -0.033745542 -0.045409467 -0.03705145 -0.023570778
up -0.034911048 -0.0057290085 -0.009434823 -0.026743062 -0.030902488 -0.018741362 -0.016565086 -0.019886065 -0.021008885 -0.03341564 -0.03453162 -0.035802234 -0.038422193 -0.042784333 -0.04301815 -0.031155344
no -0.021292405 -0.00510652 -0.035926066 -0.021873893 -0.032472756 -0.021878269 -0.044576596 -0.019177563 -0.010593355 -0.023345144 -0.036066398 -0.025930472 -0.03743636 -0.032235842 -0.029336015 -0.041486073
time -0.017706716 0.0069067366 -0.023129761 -0.046989273 -0.034174975 -0.02503332 -0.033151112 -0.019563545 -0.021459151 -0.030375993 -0.02913518 -0.048291206 -0.038262747 -0.034352053 -0.027862575 -0.024849879
she -0.016852703 0.012750629 -0.018970836 -0.027468933 -0.03452788 -0.02994168 -0.017599924 -0.026023401 -0.020614512 -0.023973878 -0.03206655 -0.024815472 -0.026552597 -0.04620513 -0.03487417 -0.031587742
even -0.047272947 -0.014460444 -0.030952264 -0.02497708 -0.033245567 -0.04393139 -0.032474987 -0.035849564 -0.016101003 -0.028453652 -0.047504127 -0.038605016 -0.023573494 -0.02630954 -0.030328201 -0.018350674
my -0.018592415 -0.03987527 -0.012549444 -0.021227373 -0.035855126 -0.019619875 -0.018941062 -0.026180312 -0.016522972 -0.029367328 -0.028177584 -0.040471625 -0.023262298 -0.03262081 -0.03555523 -0.029791094
would -0.028535645 0.019774247 -0.026959453 -0.021394009 -0.037576176 -0.028581917 -0.033614956 -0.018574903 -0.034284666 -0.03175957 -0.025962409 -0.02963135 -0.02274251 -0.045067158 -0.043513022 -0.022557477
which -0.024631789 0.016880127 -0.043027688 -0.01683625 -0.0460701 -0.020333407 -0.028990258 -0.021437217 -0.015315417 -0.025994187 -0.04798112 -0.042440977 -0.034958947 -0.035271373 -0.03599626 -0.039538063
only -0.017801447 0.012924139 -0.014623653 -0.04456768 -0.04328178 -0.020421434 -0.027119368 -0.03550544 -0.022613836 -0.033824027 -0.0335181 -0.030812806 -0.025639355 -0.04178604 -0.03164248 -0.024182498
story -0.02827768 -0.007837653 -0.01912334 -0.020597124 -0.028339338 -0.023174634 -0.040582158 -0.025652403 -0.009376228 -0.030346597 -0.029429626 -0.038326412 -0.030788008 -0.043210436 -0.04910822 -0.020219779
really -0.020239199 -0.012044001 -0.015700031 -0.021095622 -0.044057466 -0.036310017 -0.030826844 -0.03814944 -0.010817206 -0.040226292 -0.025966449 -0.024775337 -0.023828534 -0.023508374 -0.032476664 -0.035435162
see -0.03300012 0.010343945 -0.04613737 -0.015851924 -0.03123073 -0.017778497 -0.027203513 -0.0391549 -0.03250917 -0.030871142 -0.03985437 -0.041435856 -0.0244358 -0.029311478 -0.048434258 -0.023114085
their -0.018226743 0.022765879 -0.026290502 -0.023154363 -0.029976403 -0.025103725 -0.019629084 -0.033391956 -0.012320509 -0.04599123 -0.026592072 -0.033873998 -0.038161375 -0.026456103 -0.030644508 -0.048039462
had -0.020704418 -0.0058574677 -0.037881184 -0.015049411 -0.03178625 -0.018879466 -0.022074144 -0.034003697 -0.015271116 -0.031666376 -0.025955617 -0.033848543 -0.023273129 -0.025396943 -0.03983569 -0.039574064
can -0.026510548 -0.027556026 -0.044678163 -0.028394572 -0.031084882 -0.017073264 -0.024810506 -0.018469213 -0.029398574 -0.025632882 -0.03325457 -0.044620633 -0.03999006 -0.04182384 -0.027991325 -0.031485595
were -0.030657738 -0.014034152 -0.021650152 -0.0139730275 -0.031451367 -0.03370416 -0.020506544 -0.023163047 -0.014479533 -0.022878628 -0.027195126 -0.027183762 -0.02870152 -0.04992764 -0.032133903 -0.033295047
me -0.02285101 -0.022181202 -0.022044312 -0.019806687 -0.030684087 -0.034536015 -0.029957393 -0.044029083 -0.027467562 -0.048287034 -0.028276788 -0.042327717 -0.032474797 -0.030442838 -0.03525851 -0.02198022
well -0.046471264 0.013173591 -0.010557232 -0.022371758 -0.03961385 -0.04691608 -0.033016838 -0.04600532 -0.008373095 -0.025474735 -0.032649454 -0.042483594 -0.030931449 -0.028764928 -0.027703233 -0.022946017
than -0.023317862 -0.0017012358 -0.01719789 -0.017821258 -0.04316978 -0.016336706 -0.025535818 -0.034365587 -0.022489408 -0.02741606 -0.026529707 -0.03211318 -0.021432092 -0.028443106 -0.034185193 -0.020020116
we -0.019930359 0.04277991 -0.01854992 -0.030588321 -0.046055414 -0.01624755 -0.01830871 -0.019853484 -0.011351252 -0.027097963 -0.030437075 -0.046399068 -0.034718867 -0.025584307 -0.03253973 -0.02098068
much -0.01833594 -0.0010663383 -0.028436089 -0.016474215 -0.028403625 -0.028271493 -0.017602634 -0.043510225 -0.031079018 -0.03277969 -0.035536077 -0.023667775 -0.04409794 -0.024069851 -0.033313386 -0.020249238
been -0.022654124 -0.029087305 -0.039435722 -0.02155525 -0.028617607 -0.03668629 -0.027582107 -0.04959513 -0.04265709 -0.028476426 -0.03513759 -0.025739565 -0.022494866 -0.023596073 -0.033588458 -0.0314632
bad -0.024067596 0.039551493 -0.024803195 -0.026091306 -0.027115308 -0.01621075 -0.033473562 -0.031019919 -0.009753591 -0.022687009 0.19886468 -0.028664248 -0.041695524 0.2420302 -0.026280949 -0.021422265
get -0.018897125 -0.03615154 -0.023099508 -0.029012643 -0.0465302 -0.031270683 -0.02706321 -0.01967726 -0.018219208 -0.027592313 -0.029203763 -0.039351206 -0.04546938 -0.030840028 -0.03359174 -0.031232055
will -0.016314914 -0.030916905 -0.021148955 -0.016105227 -0.036623746 -0.029081857 -0.022960246 -0.02052517 -0.01064811 -0.029702587 -0.030370345 -0.0266349 -0.033855874 -0.041826785 -0.02845511 -0.047988858
do -0.022853876 -0.044980574 -0.04466003 -0.014675106 -0.037473354 -0.02677592 -0.041044377 -0.018325487 -0.04961734 -0.047320534 -0.0333197 -0.03146359 -0.023822062 -0.042859543 -0.02966428 -0.0249756
also -0.038487874 -0.040642787 -0.015916338 -0.017832417 -0.0376778 -0.014821396 -0.022184035 -0.017399691 -0.038132 -0.03869226 -0.02561077 -0.03480378 -0.023961842 -0.030680165 -0.035818517 -0.046821307
into -0.044055343 -0.033294417 -0.025585016 -0.026220076 -0.030195728 -0.027608458 -0.034254506 -0.025606593 -0.013462994 -0.024321781 -0.03895993 -0.023863541 -0.031612244 -0.029707586 -0.036924947 -0.022803769
people -0.01804284 0.008722473 -0.01950678 -0.037325226 -0.033078358 -0.025944814 -0.025245797 -0.03244227 -0.008514815 -0.03802706 -0.026872788 -0.04349315 -0.0294467 -0.027432306 -0.02699301 -0.026069107
other -0.01770834 -0.006843172 -0.009911146 -0.018535292 -0.028920451 -0.019509098 -0.024402201 -0.03592623 -0.01426805 -0.040283002 -0.038424417 -0.029609833 -0.030217938 -0.030186212 -0.02652343 -0.048904955
first -0.018449469 -0.019577159 -0.024644792 -0.015843693 -0.044999152 -0.015557648 -0.039373625 -0.030306883 -0.009026635 -0.039555233 -0.030973887 -0.030867625 -0.024042165 -0.028329153 -0.040553443 -0.03957497
great 0.29408398 0.014193854 -0.016598545 -0.02007444 -0.03126499 -0.024668865 -0.039683748 -0.046769213 -0.00932317 -0.027850691 -0.030545637 -0.023678768 -0.033984836 -0.04458312 -0.032414615 -0.02293594
because -0.024965458 -0.032897726 -0.017280694 -0.03304207 -0.037852444 -0.026352039 -0.03719467 -0.019479573 -0.011418794 -0.038007002 -0.047759224 -0.038292646 -0.036595356 -0.031206984 -0.037093587 -0.040750753
how -0.028082795 -0.029131187 -0.013531787 -0.017748512 -0.040538095 -0.016361998 -0.017322227 -0.01871066 -0.009411596 -0.029245412 -0.026606072 -0.025104307 -0.04111134 -0.033716477 -0.029093934 -0.024069652
him -0.017292786 -0.01571703 -0.022203935 -0.020797163 -0.03607453 -0.015646042 -0.036710046 -0.021398582 -0.008237572 -0.03456201 -0.03402203 -0.035436694 -0.02142871 -0.038318764 -0.042880047 -0.02239746
most -0.021970063 -0.040790666 -0.018852241 -0.0356753 -0.037993908 -0.026964724 -0.02486329 -0.019272184 -0.036744367 -0.034186743 -0.032095272 -0.027029637 -0.023183107 -0.03213477 -0.030604474 -0.030212855
don't -0.035173524 0.0077630365 -0.015475534 -0.018953975 -0.030865153 -0.01574038 -0.017923007 -0.024699323 -0.036265563 -0.02512177 -0.041866228 -0.027344383 -0.0317496 -0.029741105 -0.027149523 -0.022153152
made -0.03306893 -0.025067663 -0.03990637 -0.0170932 -0.026938071 -0.020413222 -0.034129865 -0.021341903 -0.012680544 -0.029822886 -0.037997257 -0.04951905 -0.040657297 -0.032824602 -0.03249699 -0.029732948
its -0.017688505 -0.04834905 -0.026472295 -0.037692666 -0.029667629 -0.02508368 -0.049596906 -0.031608645 -0.014468407 -0.028554227 -0.028201146 -0.028536927 -0.029540652 -0.02914877 -0.03625582 -0.025985979
then -0.028804816 -0.0127265565 -0.014157458 -0.018587263 -0.044817425 -0.031862427 -0.021288402 -0.034807194 -0.019360356 -0.031613182 -0.02911706 -0.027051285 -0.03672216 -0.02736476 -0.036056224 -0.021526935
way -0.023819217 0.030419815 -0.024967793 -0.020299932 -0.027611015 -0.023338655 -0.04600985 -0.019947173 -0.039445926 -0.04638183 -0.025631132 -0.023848208 -0.022932397 -0.02436352 -0.049625255 -0.04392288
make -0.018277656 -0.04482479 -0.023667276 -0.032452714 -0.037706755 -0.020427752 -0.020562418 -0.028600307 -0.015161662 -0.028230263 -0.027885478 -0.04993769 -0.022289159 -0.027215315 -0.045119166 -0.021684611
them -0.023884948 0.021032166 -0.024392918 -0.014990053 -0.030611772 -0.045623958 -0.025999017 -0.031797968 -0.013753937 -0.03743288 -0.04321759 -0.046318498 -0.0342687 -0.03731803 -0.032036934 -0.01787908
too -0.027213205 0.03692278 -0.016299963 -0.035937212 -0.034997545 -0.017597886 -0.039257992 -0.025413092 -0.0144816125 -0.03731475 -0.0360341 -0.025330557 -0.037522398 -0.03046704 -0.02773415 -0.026962383
could -0.020714832 -0.007978629 -0.026834775 -0.0334033 -0.028852332 -0.018249454 -0.020915557 -0.022021182 -0.008854719 -0.02847255 -0.031918004 -0.030111684 -0.02566386 -0.036069304 -0.03352798 -0.036484696
any -0.0346183 0.03444124 -0.014524091 -0.027401721 -0.0410418 -0.01919625 -0.04547136 0.13644686 -0.028586317 -0.026194584 -0.031171747 -0.025738813 -0.0215531 -0.047357716 -0.034972273 -0.04328673
movies -0.03363195 0.028970804 -0.049067687 -0.019790743 -0.03371419 -0.025745166 -0.044974413 -0.033084795 -0.008835454 -0.024873046 -0.027430808 -0.033071663 -0.034199096 -0.027636316 -0.049028672 -0.03817903
after -0.02993145 -0.022415018 -0.01664566 -0.020618742 -0.02795187 -0.01663852 -0.018571816 -0.036523342 -0.009997919 -0.022216016 -0.03443435 -0.030192504 -0.021731123 -0.026569296 -0.031310488 -0.034079142
think -0.026117755 0.01676461 -0.0149092125 -0.015960801 -0.030044153 -0.015601625 -0.025494939 -0.02151404 -0.015682984 -0.029996999 -0.030691082 -0.025614742 -0.021941628 -0.026584463 -0.025374303 -0.0388754
characters -0.020680945 0.03996772 -0.013575303 -0.0140361255 -0.02944873 -0.028083406 -0.020773813 -0.036547042 -0.010324621 -0.034670316 -0.030011166 -0.025723552 -0.023345241 -0.028319025 -0.037011776 -0.034761913
watch -0.017791426 0.12107462 -0.016958307 -0.014674091 -0.043277502 -0.022777047 -0.035227682 -0.029122738 -0.022381915 -0.022377465 -0.049967624 -0.024253625 -0.024646332 -0.02831213 -0.04752909 -0.042424798
two -0.029144017 0.016671266 -0.018586759 -0.018444408 -0.029711453 -0.023322238 -0.040906835 -0.0242062 -0.009491027 -0.022384694 -0.031367674 -0.036580876 -0.02578317 -0.03395948 -0.0435115 -0.02343892
films -0.02238871 -0.028918898 -0.043038704 -0.03574977 -0.029480694 -0.019433714 -0.040051986 -0.018739684 -0.0095241675 -0.0394874 -0.032374028 -0.04845009 -0.024088383 -0.025210999 -0.028084721 -0.021096086
character -0.042966247 -0.0037349947 -0.012690809 -0.028376294 -0.04535538 -0.014874448 -0.016994352 -0.030753115 -0.013586776 -0.037293293 -0.026169857 -0.023403239 -0.021311045 -0.025677588 -0.03106002 -0.019933341
seen -0.042271186 -0.041808367 -0.03797251 -0.0272361 -0.027862966 -0.020301335 -0.04171114 -0.02713278 -0.014710844 -0.027084637 -0.030937709 -0.032600544 -0.032344688 -0.027381776 -0.037461862 -0.03696991
many -0.015818814 0.010726694 -0.045569636 -0.04878335 -0.027741507 -0.015506748 -0.020416299 -0.03335015 -0.010112476 -0.032230716 -0.040963985 -0.029616972 -0.038876083 -0.029480197 -0.039188836 -0.01933865
being -0.0305061 0.0030138977 -0.021853322 -0.014788146 -0.031800408 -0.023648065 -0.0411103 -0.03650881 -0.025067378 -0.029451767 -0.029081156 -0.038232435 -0.022428343 -0.025977379 -0.037693106 -0.03134656
life -0.016175307 -0.0351923 -0.010880361 -0.021244515 -0.026446672 -0.041665435 -0.022924626 -0.03058382 0.1601014 -0.031775363 -0.035394 -0.039679904 -0.03511165 -0.03896329 -0.04082664 -0.04931823
plot -0.023956513 -0.019987632 -0.048166584 -0.027832888 -0.040623534 -0.02580863 -0.035729755 -0.043982398 -0.039824832 -0.023239193 -0.03154408 -0.038251497 0.4229825 -0.031038072 -0.029609535 -0.031880382
never -0.019864839 0.10652573 -0.01847665 -0.018733038 -0.03878968 -0.034342147 -0.035817295 -0.035664324 -0.012438758 -0.02596662 -0.026921703 -0.025062429 -0.04077147 -0.04046333 -0.026487615 -0.029512532
acting -0.039598264 0.0038776398 -0.011575422 -0.032427907 -0.026113216 -0.025843112 -0.019239247 -0.03522519 -0.01019888 -0.023045082 -0.029014934 -0.025633547 -0.023840418 -0.029076364 -0.03935 -0.022776255
little -0.02815572 -0.034510054 -0.017879428 -0.039168727 -0.028432447 -0.019087061 -0.020549165 -0.017201059 -0.013259743 -0.030987956 -0.027327 -0.036601596 -0.038131613 -0.025263762 -0.029167468 -0.02360344
best -0.020450963 -0.01071794 -0.028027954 0.2759612 -0.038769238 -0.015463805 -0.021073435 -0.044870343 -0.008135806 -0.030488478 -0.029069198 -0.031527523 -0.043959774 -0.04551488 -0.035764106 -0.029206922
love -0.027440218 -0.00035437196 -0.0176057 -0.029824767 -0.038241114 -0.016457574 0.066496685 -0.020731675 -0.024371615 -0.02695365 -0.031153062 -0.0342945 -0.02588215 -0.03628315 -0.040888015 -0.020897096
over -0.018727334 -0.028917743 -0.014267151 -0.024914738 -0.029412962 -0.019271916 -0.02914374 -0.03960786 -0.004336501 -0.020683695 -0.0298108 -0.027508453 -0.023778483 -0.04285289 -0.033359434 -0.021462705
where -0.016101418 -0.03634583 -0.025348635 -0.035627104 -0.037914347 -0.030413626 -0.02173119 -0.04798305 -0.038974572 -0.03751649 -0.049148 -0.03532816 -0.02357807 -0.032397777 -0.034111787 -0.018012226
did -0.017518006 -0.027059305 -0.02332343 -0.020860888 -0.031129742 -0.03292777 -0.016941736 -0.037333824 -0.018274253 -0.03724211 -0.03471122 -0.029903887 -0.028211083 -0.03846414 -0.03958391 -0.029893365
show -0.027311949 0.0064593665 -0.028194595 -0.024853272 -0.02628712 -0.017118027 -0.040123962 -0.022321323 -0.042930614 -0.029602181 -0.03628826 -0.028704826 -0.034450553 -0.035115145 -0.033081904 -0.025380876
know -0.048471797 0.00340271 -0.04523636 -0.035507333 -0.027071925 -0.02908418 -0.03361447 -0.021264076 -0.01567951 -0.03084503 -0.02855609 -0.025800863 -0.024860945 -0.024864392 -0.049233258 -0.04288453
off -0.018081425 0.007951297 -0.013768293 -0.028885711 -0.039151974 -0.03331058 -0.02065337 -0.029853076 -0.0086791925 -0.022490524 -0.035204735 -0.048604466 -0.0384561 -0.03335776 -0.048380245 -0.022200705
ever -0.03442831 -0.030926777 -0.0236187 -0.025533164 -0.039562203 -0.018084113 -0.041582298 -0.032825768 -0.0374346 -0.023167139 -0.032652985 -0.02490853 -0.04108962 -0.026656922 -0.027973795 -0.017579587
does -0.032221492 0.016108816 -0.017684527 -0.041670952 -0.029044334 -0.026597414 -0.047400024 -0.019962626 -0.030330766 -0.04707656 -0.040162787 -0.02442951 -0.023640655 -0.027845144 -0.042647492 -0.039744567
better -0.0470433 -0.02749579 -0.023819327 -0.029357329 -0.044157337 -0.019032907 -0.022764375 -0.038709186 -0.012355747 -0.025595922 -0.046911277 -0.029045228 -0.024401885 -0.034005225 -0.037796568 -0.0304061
your -0.025005221 -0.000100016594 -0.048029732 -0.024942065 -0.04095352 -0.021409469 -0.019061457 -0.01764443 -0.019433727 -0.022181772 -0.035926055 -0.031960383 -0.026451772 -0.035781167 -0.026049208 -0.018557958
end -0.0319216 -0.048594095 -0.016454479 -0.019019132 -0.03765025 -0.019250628 -0.049631167 -0.01878706 -0.014605484 -0.030142814 -0.039363492 -0.026613183 -0.02422694 -0.03432423 -0.03427622 -0.027333165
still -0.015781624 -0.0045886263 -0.011351102 -0.014621291 -0.027825223 -0.030902375 -0.018726015 -0.03148432 -0.010388425 -0.030849457 -0.0283157 -0.025511296 -0.024542531 -0.027703783 -0.02790193 -0.01982025
man -0.017940007 -0.0274135 -0.049205817 -0.031612266 -0.03767153 -0.024413114 -0.018805994 -0.024766553 -0.012619398 -0.038136028 -0.04302272 -0.036668777 -0.0397804 -0.03786387 -0.03402009 -0.020032203
here -0.01726413 -0.045372464 -0.048896838 -0.014214196 -0.0274457 -0.0279786 -0.01946975 -0.03379836 -0.010758135 -0.029431125 -0.025288237 -0.026160304 -0.023365263 -0.036262345 -0.04861487 -0.033426322
these -0.03739549 0.016194988 -0.041202653 -0.015625585 -0.031766564 -0.020174619 -0.048988413 -0.033427313 -0.012920782 -0.029003825 -0.028233893 -0.024522243 -0.029642582 -0.034341097 -0.027286192 -0.04912409
say -0.021271776 -0.00453756 -0.048722018 -0.022203736 -0.04128184 -0.03390629 -0.03182105 -0.022605076 -0.048160877 -0.034390945 -0.027327932 -0.02716509 -0.024116112 -0.04195665 -0.028729418 -0.018682707
scene -0.04561415 -0.02696737 -0.012213729 -0.016554419 -0.033238042 -0.028482426 -0.018979594 -0.04364363 -0.009809505 -0.033869375 -0.029873641 -0.02969952 -0.039228223 -0.023780989 -0.04342989 -0.020262178
while -0.031807207 0.07386391 -0.026731873 -0.01537369 -0.02845637 -0.027155511 -0.016725224 -0.028258584 -0.0105314925 -0.024877666 -0.02800504 -0.026289001 -0.02335985 -0.024312818 -0.031551633 -0.022385985
why -0.017961254 -0.017556667 -0.012003189 -0.01848471 -0.036602188 -0.019707058 -0.018926872 -0.029949592 -0.026462007 -0.034213506 -0.025586534 -0.027806025 -0.033693083 -0.028536202 -0.026653303 -0.023927618
scenes -0.019191325 0.025207233 -0.031850934 -0.015503268 -0.037683118 -0.018329158 -0.03302579 -0.02102551 -0.011517313 -0.038361035 -0.032948043 -0.025248766 -0.037412167 -0.038008347 -0.03747998 -0.043623935
go -0.016127944 -0.023756588 -0.01251341 -0.020069277 -0.034773923 -0.014863893 -0.025047898 -0.021280186 -0.011079945 -0.027269771 -0.031188782 -0.027287664 -0.029310018 -0.025307188 -0.026503574 -0.019134525
such -0.021955675 0.025544796 -0.04838344 -0.014106225 -0.03147744 -0.017721824 -0.0171747 -0.026895734 -0.03109671 -0.038615834 -0.03198244 -0.04933524 -0.025910906 -0.028335901 -0.030108254 -0.024368286
something -0.017674435 -0.031504847 -0.02644198 -0.024208684 -0.035971653 -0.025847096 -0.02794009 -0.02190753 -0.039036643 -0.024359023 -0.03386476 -0.028472153 -0.043785345 -0.03177841 -0.049426794 -0.022248479
through -0.029310072 -0.037743807 -0.02487613 -0.016955905 -0.034059703 -0.04496857 -0.022417622 -0.017693687 -0.009262036 -0.027748533 -0.027350003 -0.038817298 -0.02468474 -0.035626307 -0.049548913 -0.047248986
should -0.016826004 0.00069822 -0.015387079 -0.03805233 -0.028415304 -0.017247017 -0.018151874 -0.023168182 -0.014184634 -0.026112247 -0.02725403 -0.029682908 -0.02018196 -0.042166732 -0.03033818 -0.023162574
back -0.037095916 -0.03654877 -0.013615063 -0.015038999 -0.031168224 -0.049709942 -0.032827914 -0.02316667 -0.035444 -0.028998889 -0.033752296 -0.04154633 -0.030215222 -0.0257501 -0.033771448 -0.045764185
i'm -0.049231566 0.019949738 -0.0396266 -0.016458502 -0.041332036 -0.027361147 -0.016866678 -0.017767299 -0.032489993 -0.02633363 -0.036044832 -0.033194184 -0.023301115 -0.034772635 -0.02718857 -0.020095434
real -0.026875442 -0.045871604 -0.019855348 -0.03294157 -0.04317181 -0.02098614 -0.019324226 -0.020972494 -0.011232972 -0.02975295 -0.044131435 -0.043461144 -0.02198664 -0.026348962 -0.03322052 -0.04215913
those -0.033622514 -0.026522303 -0.026701462 -0.019346237 -0.027751287 -0.02459482 -0.016717011 -0.027236205 -0.018702546 -0.033137046 -0.041079856 -0.025518073 -0.024090974 -0.025280105 -0.031175874 -0.035236225
watching -0.016456138 -0.010920703 -0.015851606 -0.028189605 -0.026477946 -0.016013259 -0.02556026 -0.0168331 -0.027761018 -0.030518468 -0.039731894 -0.03809349 -0.03320384 -0.042524774 -0.040292744 -0.019731725
now -0.023556316 0.009969413 -0.012499704 -0.019331617 -0.039192874 -0.015933821 -0.027642082 -0.034519024 -0.013891227 -0.026669513 -0.026265722 -0.03090166 -0.0386986 -0.028451322 -0.04193286 -0.035066567
though -0.015948964 -0.0039750114 -0.02321738 -0.01715794 -0.04021368 -0.018499736 -0.029380549 -0.019768097 -0.013709403 -0.022460032 -0.027166395 -0.02787756 -0.026309825 -0.03480017 -0.03637615 -0.035878778
doesn't -0.017958252 -0.018741835 -0.020987444 -0.023234371 -0.02836622 -0.028921114 -0.019269895 -0.024341922 -0.012688283 -0.026284914 -0.03591757 -0.023948051 -0.02867641 -0.026445866 -0.041739594 -0.022628678
years -0.017932931 0.011444187 -0.0105214855 -0.037989546 -0.02717873 -0.014660143 -0.023539964 -0.04138764 -0.042036165 -0.023857007 -0.028025772 0.12688813 -0.03589214 -0.025326664 -0.045155432 -0.019588845
old -0.044037964 0.019621696 -0.045464244 -0.030972341 -0.041535378 -0.029529056 -0.018279498 -0.022189967 -0.037159216 -0.041344296 -0.04824234 -0.041852415 -0.02221654 -0.023372507 -0.03278766 -0.034776676
thing -0.04082918 -0.01734649 -0.013255976 -0.0178185 -0.043244313 -0.038285088 -0.018318068 -0.02088569 -0.009453464 -0.030158825 -0.028643042 -0.02467581 -0.03805235 -0.02798471 -0.02797022 -0.047177613
actors -0.017518092 -0.007157851 -0.025814807 -0.033249006 -0.046262085 -0.017180312 -0.020389762 -0.019291537 -0.008745208 -0.022992726 -0.026490057 -0.041107476 -0.03890392 -0.026255306 -0.03359095 -0.021740757
work -0.017503142 0.012655459 -0.015776904 -0.028917104 -0.039530158 -0.024456942 -0.018165492 -0.019819686 -0.035373498 -0.025846241 -0.026686605 -0.030256012 -0.034159575 -0.027645458 -0.02675406 -0.017650478
10 -0.016411245 -0.04219681 -0.011302681 -0.034041572 -0.030972645 -0.01568339 -0.02425396 -0.040335607 -0.03249196 -0.023643073 -0.0439375 -0.027358769 -0.028248971 -0.033521537 -0.030346792 -0.020347627
before -0.020887647 -0.0414009 -0.02600931 -0.021962214 -0.033398565 -0.014874803 -0.021572193 -0.026971042 -0.010541966 -0.03365952 -0.043039013 -0.033751525 -0.044311177 -0.036956128 -0.02602466 -0.025773872
another -0.019101443 0.027081978 -0.011866094 -0.016247334 -0.031871233 -0.018478593 -0.048706423 -0.0221964 -0.01919833 -0.022453833 -0.029929956 -0.027228475 -0.04035561 -0.041135073 -0.02683998 -0.018884147
didn't -0.027368104 -0.016551018 -0.020098818 -0.0150822885 -0.026105978 -0.017276358 -0.020278271 -0.049489606 -0.00910037 -0.03025032 -0.042325914 -0.03215924 -0.02435751 -0.026687572 -0.030915752 -0.020583559
new -0.01870708 0.032232013 -0.010566721 -0.017138578 -0.034621082 -0.031178493 -0.025923576 -0.039502442 -0.023893602 -0.03198731 -0.04230857 -0.03904879 -0.035001736 -0.024523247 -0.034320522 -0.033284124
funny -0.03247847 0.0401231 -0.013656115 -0.02366298 -0.026599783 -0.038486075 -0.017998695 -0.03826811 -0.011663754 -0.033729695 -0.03734881 -0.027567564 -0.022347063 -0.039668992 -0.041413642 -0.02259812
nothing -0.020341918 0.015115526 -0.016200222 -0.014446708 -0.026207013 -0.025217665 -0.035134993 -0.020249058 -0.012758642 -0.025024608 -0.031626992 -0.025033629 -0.02405485 -0.024799742 -0.03135545 -0.035670534
actually -0.019117141 0.11065982 -0.0185333 -0.01845453 -0.028716074 -0.049793173 -0.018109098 -0.01905213 -0.008656051 -0.028468048 -0.041406926 -0.048152354 -0.042113937 -0.040665217 -0.033706415 -0.031034429
makes -0.021309089 0.0017950423 -0.011084956 -0.013690704 -0.047067907 -0.019132629 -0.03224784 -0.021303857 -0.031595983 -0.029474068 -0.034671485 -0.03170325 -0.022801798 -0.026586585 -0.043345556 -0.018224401
director -0.015902469 -0.042463493 -0.04971106 -0.032826863 -0.02662093 -0.02321685 -0.033038836 -0.0264763 -0.04654635 -0.02228445 -0.02662197 -0.026646053 -0.03320538 -0.028696986 -0.035556875 -0.033528816
look -0.019292926 0.023555446 -0.037100695 -0.04168726 -0.027728574 -0.044569995 -0.04287299 -0.020165682 -0.006986091 -0.030597012 -0.026605118 -0.035435252 -0.026899843 -0.023656368 -0.035154734 -0.020206602
find -0.021089027 -0.024526728 -0.019066552 -0.04512745 -0.03041201 -0.032169364 -0.017666066 -0.03285039 -0.0100451745 -0.029945847 -0.027712528 -0.046501484 -0.024736386 -0.02677033 -0.029584823 -0.018089587
going -0.016722498 0.028551523 -0.026019018 -0.019110577 -0.032002166 -0.021565001 -0.048381925 -0.018564545 -0.016010214 -0.026692165 -0.025712421 -0.04405085 -0.038568716 -0.04168433 -0.026621778 -0.019176258
few -0.03946116 -0.03295006 -0.01951833 -0.020874294 -0.03457509 -0.020883596 -0.02034735 -0.04757264 -0.03569145 -0.031991415 -0.034838766 -0.047776926 -0.026991999 -0.038511444 -0.034699872 -0.022306241
same -0.0391518 -0.023028696 -0.048492637 -0.029132498 -0.039504897 -0.032740794 -0.034231283 -0.017800268 -0.024089683 -0.03225138 -0.034349043 -0.02358516 -0.022771562 -0.037829675 -0.03756386 -0.030791964
part -0.028888803 0.03772327 -0.01643674 -0.023242379 -0.030781172 -0.016709862 -0.01744113 -0.02023567 -0.013929029 -0.040731717 -0.03273331 -0.047461916 -0.032110423 -0.035869382 -0.030306032 -0.043624163
again -0.018755069 -0.04571117 -0.013474552 -0.026656518 -0.035030294 -0.015454264 -0.020720322 -0.020470107 -0.018130656 -0.03911387 -0.025870375 -0.033487447 -0.02885579 -0.03010125 -0.030956196 -0.025592886
every -0.021491578 -0.03582977 -0.016828734 -0.01556595 -0.02819645 -0.017074741 -0.044819154 -0.022822762 -0.011404108 -0.022633146 -0.031067038 -0.026929293 -0.022890024 -0.02791108 -0.0316806 -0.026332198
lot -0.028218737 -0.020563353 -0.015190269 -0.015503313 -0.027756633 -0.027024282 -0.025567794 -0.027340341 -0.009070499 -0.039028317 -0.033740558 -0.048976507 -0.03207661 -0.037547555 -0.03724278 -0.034680866
cast -0.028581599 -0.04088391 -0.016444221 -0.04699521 -0.029743914 -0.021316176 -0.028676813 -0.026139844 -0.04138746 -0.026141092 -0.026426824 -0.027336894 -0.03731867 -0.02643752 -0.044405747 -0.019171603
us -0.03473886 0.025071356 -0.019079305 -0.045853924 -0.03070116 -0.031213893 -0.024329139 -0.029815046 -0.041149806 -0.04440074 -0.036998563 -0.036203884 -0.024392894 -0.037067443 -0.04678601 -0.025494779
quite -0.04764061 -0.0069270507 -0.015583248 -0.03637767 -0.030695856 -0.023423258 -0.015993519 -0.033329424 -0.021687318 -0.031641126 -0.026723757 -0.023645062 -0.04624703 -0.022920143 -0.025837025 -0.03238976
down -0.018238563 -0.025374055 -0.0118168965 -0.021551697 -0.03373125 -0.037264097 -0.020990618 -0.019697705 -0.021344995 -0.027628742 -0.025486812 -0.034545016 -0.029305074 -0.04157435 -0.030989228 -0.030667668
want -0.036723603 0.022245731 -0.009874857 -0.014230864 -0.02788699 -0.03969997 -0.01910083 -0.032441996 -0.017085718 -0.02281953 -0.025760131 -0.030971194 -0.029889487 -0.03996862 -0.03233696 -0.018131733
world -0.01947414 0.016459946 -0.018733036 -0.014384513 -0.025879446 -0.0486359 -0.0188212 -0.034354266 -0.045287576 -0.037601806 -0.031028362 -0.033316564 -0.031242339 -0.024188114 -0.043668736 -0.019599395
things -0.0224589 -0.04761039 -0.0109224105 -0.03280338 -0.038066085 -0.018685147 -0.020254213 -0.027820993 -0.02268593 -0.031085731 -0.040274516 -0.035732906 -0.02565466 -0.02906965 -0.025208754 -0.020189
pretty -0.015835853 0.01628859 -0.015845256 -0.016494488 -0.029306935 -0.0428478 -0.017820848 -0.030468578 -0.021116937 -0.030344153 -0.030602714 -0.02601465 -0.022421192 -0.026509369 -0.029401645 -0.023241233
young -0.0154581275 0.013191793 -0.018613752 -0.031216312 -0.036898583 -0.042167865 -0.024964644 -0.018399857 -0.020147152 -0.035454165 -0.039270747 -0.04694828 -0.033919636 -0.031379297 -0.025629992 0.059567794
seems -0.016528163 -0.026063144 -0.037069976 -0.03396194 -0.02712624 -0.022066431 -0.02940389 -0.033205617 -0.028484512 -0.023281146 -0.041600928 -0.025792295 -0.021400029 -0.024439303 -0.025155509 -0.028596688
around -0.01731357 -0.010613419 -0.015519864 -0.03429421 -0.026517225 -0.018507663 -0.017932743 -0.022563303 -0.021376466 -0.024351 -0.024945734 -0.034256622 -0.028421188 -0.024416719 -0.034599394 -0.019624861
got -0.017759508 -0.02805661 -0.014299896 -0.018980682 -0.035776764 -0.0153679475 -0.032412805 -0.032805678 -0.013104837 -0.03471595 -0.048788395 -0.023930533 -0.023424847 -0.025265343 -0.04923817 -0.019515166
horror -0.018319927 0.016585458 -0.015873058 -0.02143335 -0.038391184 -0.024766613 -0.018645883 -0.04153515 -0.026301503 -0.02647469 -0.034416605 -0.02677747 -0.028401868 -0.029076802 -0.03442037 -0.023485258
however -0.01740297 -0.003762029 -0.02743398 -0.014178543 -0.029709097 -0.020704618 -0.034656767 -0.029326534 -0.014917411 -0.022266684 -0.036063492 -0.027192712 -0.032996282 -0.02279575 -0.025355574 -0.035302073
can't -0.046488523 0.0021492615 -0.017260812 -0.031906404 -0.03822056 -0.025190173 -0.016833186 -0.023729151 -0.032304406 -0.04040144 -0.030838752 -0.02848084 -0.031586174 -0.029632224 -0.03935362 -0.03200381
fact -0.021283107 0.035941925 -0.039552093 -0.044219207 -0.028742246 -0.025045991 -0.019166028 -0.023362447 -0.031054437 -0.026981862 -0.027421324 -0.04092126 -0.03408001 -0.029194966 -0.035120744 -0.021665605
take -0.02476628 0.0026808754 -0.013360219 -0.02169427 -0.028876638 -0.018526915 -0.028926948 -0.03071787 -0.038487114 -0.028542148 -0.03269485 -0.040996086 -0.03399982 -0.036838006 -0.0306454 -0.023190029
big -0.017890532 0.017929997 -0.019722208 -0.02317998 -0.038634155 -0.016215222 -0.03154745 -0.04410403 -0.021101778 -0.024514508 -0.029393122 -0.03570024 -0.038850415 -0.024788024 -0.035774622 -0.018701386
enough -0.02349237 -0.019679297 -0.020631561 -0.025728535 -0.039659653 -0.03890308 -0.020836579 -0.01472004 -0.011681555 -0.036570147 -0.03233852 -0.027865978 -0.04008652 -0.02327165 -0.029438404 -0.03724842
long -0.028820401 0.019904781 -0.020747334 -0.03064012 -0.027872987 -0.048958134 -0.021591958 -0.04786099 -0.04599383 -0.04018302 -0.026770348 -0.02682533 -0.0214642 -0.024225768 -0.027881436 -0.0296463
thought -0.019680856 0.039923858 -0.01881969 -0.016332725 -0.03011538 -0.02306248 -0.020742139 -0.029165888 -0.02096963 -0.023173332 -0.034892272 -0.032485485 -0.04636104 -0.04465301 -0.026134793 -0.031605635
that's -0.017719897 0.00852716 -0.017874517 -0.019254671 -0.030779839 -0.018756079 -0.021309998 -0.036933552 -0.035698045 -0.037860554 -0.029723367 -0.02486277 -0.021765169 -0.036136687 -0.030758783 -0.021241218
both -0.017884543 -0.005848229 -0.029946184 -0.04612049 -0.033870056 -0.028515983 -0.019572854 -0.021978496 -0.011642042 -0.038576983 -0.032278154 -0.023733025 -0.022639608 -0.029427512 -0.028100241 -0.017813146
between -0.01734063 0.011980165 -0.035091378 -0.01798046 -0.026707837 -0.022277856 -0.030650979 -0.032388847 -0.010852586 -0.022112776 -0.04429425 -0.035058763 -0.04429195 -0.024231697 -0.027110789 -0.018775437
series -0.03442048 0.0039572828 -0.014022687 -0.04966246 -0.027879998 -0.044084262 -0.024231046 -0.03149009 -0.013248603 -0.032899737 -0.027417354 -0.026472254 -0.04483024 -0.03280814 -0.03077876 -0.043289185
give -0.020994378 -0.048579168 -0.016244981 -0.02087153 -0.048818078 -0.019249398 -0.028703807 -0.024869088 -0.008222138 -0.025114316 -0.029210007 -0.029464018 -0.032374807 -0.029305601 -0.03363677 -0.019067895
may -0.014611432 0.019654538 -0.012454907 -0.027079223 -0.02685382 -0.024148563 -0.016094945 -0.02098403 -0.017367316 -0.03539535 -0.029618612 -0.026428364 -0.032232717 -0.031223154 -0.029384522 -0.03748127
original -0.029557703 0.039394364 -0.012556485 -0.015733687 -0.027531827 -0.029696785 -0.024302721 -0.035292476 -0.010428771 -0.033966787 -0.039902933 -0.02435693 -0.029567702 -0.024747277 -0.049972165 -0.019183517
own -0.024116613 0.21304423 -0.014964165 -0.012860967 -0.037446402 -0.04143821 -0.034540176 -0.01747275 -0.013308426 -0.022906339 -0.027655596 -0.02517635 -0.024749953 -0.025173152 -0.034679756 -0.018051812
action -0.026495755 0.0067835934 -0.010673905 -0.033582807 -0.027387476 -0.037693538 -0.0348615 -0.02280488 -0.01009035 -0.040357217 -0.036177445 -0.032685533 -0.035628654 -0.025936503 -0.036769915 -0.018411558
i've -0.016227728 0.10342492 -0.011460513 -0.01584919 -0.038434066 -0.02097193 -0.04197506 -0.022732923 -0.022285314 -0.02353698 -0.029950531 -0.024550064 -0.035608042 -0.04113692 -0.027827755 -0.025540804
right -0.0205985 -0.043646075 -0.015005134 -0.016418697 -0.037687816 -0.026967535 -0.046033707 -0.028461723 -0.021143852 -0.029595297 -0.034856655 -0.025456348 -0.026663499 -0.02359318 -0.02734727 -0.020866252
without -0.044677187 -0.025074983 -0.016166661 -0.03097711 -0.028850215 -0.0133720655 -0.026718868 -0.027606284 -0.04164536 -0.03401012 -0.032854293 -0.027074914 -0.026372219 -0.027768105 -0.045499336 -0.029784573
always -0.023175502 -0.040954612 0.1527818 -0.01828595 -0.02887751 -0.04140235 -0.035037152 -0.017296799 -0.029058386 -0.03636483 -0.034750678 -0.0309404 -0.031767897 -0.032674707 -0.03674081 -0.024087332
times -0.021622948 -0.017157055 0.056850232 -0.015372379 -0.043772805 -0.021500822 -0.023921488 -0.025585633 -0.044878304 -0.04120805 -0.031214764 -0.02425683 -0.049920987 -0.027669791 -0.026858564 -0.02605895
comedy -0.039974652 0.013087597 -0.04418055 -0.04390669 -0.037236266 -0.034116365 -0.03218747 -0.022377849 -0.047917545 -0.03600735 -0.029553302 -0.03548393 -0.026449742 -0.024467494 -0.033022743 -0.043067705
point -0.023775997 0.035965 -0.01977327 -0.014606241 -0.032445043 -0.021800784 -0.04763017 -0.023733472 -0.032822326 -0.037401427 -0.031246105 -0.03202783 -0.023007097 -0.032236602 -0.030313635 -0.019075334
gets -0.023162974 0.035194684 -0.03819827 -0.04307703 -0.039544083 -0.025038412 -0.027993573 -0.046066534 -0.022910377 -0.026345627 -0.02789266 -0.025573973 -0.02424848 -0.044736743 -0.03285295 -0.036942374
must -0.035525322 -0.0065962784 -0.022907564 -0.026224732 -0.028246004 -0.013528326 -0.019390138 -0.030465307 -0.009974578 -0.024841439 -0.03838707 -0.03753067 -0.034680486 -0.023850424 -0.043845095 -0.02045834
come -0.0370005 -0.014278233 -0.025943447 -0.028073717 -0.04351851 -0.036082197 -0.027719194 -0.021572385 -0.018850137 -0.028249014 -0.026035404 -0.026820267 -0.038851973 -0.03572043 -0.028842695 -0.023774365
role -0.016412014 -0.04616748 -0.025049353 -0.025543762 -0.035526227 -0.014264642 -0.016203059 -0.024845263 -0.02481302 -0.04850464 -0.02786126 -0.022963144 -0.036544073 -0.024243716 -0.03456952 -0.034690104
isn't -0.025976148 -0.0005559437 -0.014313865 -0.02366169 -0.03314959 -0.037813056 -0.032633245 -0.018010106 -0.04247085 -0.025327912 -0.026695631 -0.028115535 -0.03222091 -0.025121097 -0.037402295 -0.022711903
saw -0.029171526 -0.00845933 -0.015353144 -0.016821496 -0.03450314 -0.027549021 -0.03198449 -0.025169594 -0.047190785 -0.030075736 -0.027800493 -0.038066115 -0.028396685 -0.043155577 -0.027286762 -0.019308038
almost -0.04615959 -0.04202751 -0.014794599 -0.024329195 -0.029136373 -0.021465959 -0.025963679 -0.021455126 -0.033928648 -0.027407916 -0.03251944 -0.026753414 -0.025166666 -0.025661774 -0.031130977 -0.025824638
interesting -0.018599056 0.00200582 -0.010797826 -0.0211864 -0.037491705 -0.020811906 -0.02636757 -0.038036 -0.009546679 -0.035334352 -0.04189486 -0.03035921 -0.025210137 -0.027601415 -0.032342046 -0.019303223
least -0.029300842 0.018228043 -0.017031262 -0.01811174 -0.03256127 -0.030778453 -0.028013516 -0.02158949 -0.011006301 -0.028563816 -0.036053926 -0.047326516 -0.025254613 -0.041305132 -0.037544236 -0.020225901
family -0.049397316 -0.023384487 -0.035835646 -0.03274116 -0.03426845 -0.028299725 -0.021457313 -0.040180635 -0.029905546 -0.024064293 -0.03845296 -0.023404408 -0.027887488 -0.030655919 -0.04231714 0.051705323
done -0.026334314 0.0072157495 -0.02773979 -0.014381209 -0.033418905 -0.021945663 -0.02323624 -0.031243945 -0.01853134 -0.026529716 -0.03287951 -0.024195766 -0.049622655 -0.047151066 -0.02694685 -0.019794183
there's -0.025247008 0.08057752 -0.026984716 -0.027413119 -0.030811444 -0.021868318 -0.030955207 -0.0385255 -0.03529508 -0.047624707 -0.035303984 -0.038472533 -0.02285994 -0.023045916 -0.037158985 -0.020131683
whole -0.0234392 -0.03838085 -0.04266833 -0.016878746 -0.022054693 -0.03973185 -0.028770125 -0.021577299 -0.012582712 -0.031598337 -0.026175082 -0.024773574 -0.025020896 -0.035606492 -0.032340266 -0.035791907
bit -0.01763049 0.025059212 -0.012432373 -0.03085192 -0.034592945 -0.03791635 -0.020883381 -0.018973662 -0.02127273 -0.035230506 -0.03472901 -0.03870603 -0.02286464 -0.035643123 -0.03147722 -0.018380707
music -0.018737078 -0.026623368 -0.042322803 -0.040685344 -0.03924998 -0.029464595 -0.026637299 -0.036645316 -0.027039552 -0.039486546 -0.027323218 -0.025385033 -0.02529428 -0.038228426 -0.031212637 -0.032586895
script -0.029404312 -0.040197037 -0.028396875 -0.0144002065 -0.028012753 -0.022454247 -0.025429046 -0.02098857 -0.014796891 -0.048849132 -0.027249392 -0.043774486 -0.026544139 -0.031770222 -0.03325582 -0.019512136
far -0.017044244 -0.03299544 -0.011856686 -0.018897543 -0.030081034 -0.020982154 -0.015987124 -0.020985706 -0.010484087 -0.03269181 -0.032444797 -0.029723847 -0.03562478 -0.024063263 -0.043358993 -0.023312176
making -0.03974266 0.009443175 -0.048978426 -0.015124437 -0.027907582 -0.019567534 -0.020387948 -0.019420326 -0.012689349 -0.022229312 -0.040378075 -0.025584795 -0.02359279 -0.025464306 -0.0056262203 -0.02790916
guy -0.03397367 0.0018086433 -0.013399362 -0.048891973 -0.0323255 -0.027866377 -0.025594031 -0.02354889 -0.011043482 -0.029384892 -0.04240605 -0.024158671 -0.049396303 -0.03590244 -0.035137564 -0.022475665
anything -0.031778205 -0.035899628 -0.01249602 -0.01509666 -0.035928547 -0.04743713 -0.018139701 -0.01837894 -0.021350186 -0.033079367 -0.026562883 -0.033651255 0.2210268 0.11046766 -0.024895018 -0.033048704
minutes -0.025973978 -0.0018023222 -0.019633226 -0.0159846 -0.027237874 -0.03321389 -0.019541616 -0.034893114 -0.037299883 -0.035846345 -0.033171486 -0.03061604 -0.027390843 0.12957722 -0.044369556 -0.026454981
feel -0.02370878 -0.044773985 -0.016071573 -0.021351302 -0.046876717 -0.020473694 -0.01649429 -0.02489323 -0.03273481 -0.021963986 -0.027391007 -0.03469436 -0.022669258 -0.040700495 -0.025803506 -0.045528542
last -0.01860318 0.023225952 -0.025696684 -0.022936858 -0.038718693 -0.049375545 -0.016777076 -0.018856391 -0.025971945 -0.025585946 -0.036450535 -0.031136317 -0.02890352 -0.02864169 -0.025530452 -0.03170221
since -0.029336197 0.0060955063 -0.027775401 -0.024328446 -0.031281963 -0.017000606 -0.02332281 -0.01767164 -0.017996393 -0.022380842 -0.025822401 -0.023581332 -0.021080067 -0.023528982 -0.027731234 -0.021286767
might -0.024962796 -0.022807896 -0.030720878 -0.016137555 -0.03477244 -0.014715551 -0.024985837 -0.020299297 -0.023148919 -0.042388093 -0.036840912 -0.035734415 -0.049783446 -0.049739566 -0.035895437 -0.029332237
performance -0.027739203 -0.0047338977 -0.042933714 -0.038377035 -0.045263875 -0.027467538 -0.039612554 -0.048120093 -0.008608794 -0.022720624 -0.039280355 -0.023285512 -0.025206335 -0.041688107 -0.033861086 -0.03995342
he's -0.031996433 -0.012686003 -0.009528863 -0.04089997 -0.02652994 -0.047874417 -0.022500241 -0.01739068 -0.022031998 -0.024448842 -0.041471638 -0.02365203 -0.022074968 -0.024767958 -0.03055985 -0.017853951
2 -0.02019458 -0.049379755 -0.010985162 -0.023753572 -0.026312651 -0.040785085 -0.017135832 -0.021367442 -0.015746128 -0.039338075 -0.02871767 -0.033680752 -0.023046613 -0.040653147 -0.03707067 -0.024330556
probably -0.016601345 -0.044018436 -0.012331822 -0.015121601 -0.031739317 -0.026845744 -0.02339591 -0.031906463 -0.03190489 -0.030547038 -0.025737138 -0.027488923 -0.028721249 -0.03756346 -0.026267504 -0.040986337
kind -0.018383753 0.0093881115 -0.022583138 -0.029240204 -0.031774983 -0.030934745 -0.03408154 -0.019429661 -0.037841283 -0.02470104 -0.032593995 -0.029177528 -0.03240696 -0.038823377 -0.035119593 -0.043213595
am -0.028223239 0.015000496 -0.020111067 -0.01913034 -0.041216962 -0.016790079 -0.034386877 -0.019158976 -0.02605871 -0.04397744 -0.036633424 -0.036571316 -0.030446667 -0.03369753 -0.031385623 -0.03602463
away -0.038860034 -0.024317456 -0.026138917 -0.02798532 -0.04165597 -0.040939927 -0.038627386 -0.02407893 -0.018275501 -0.03148429 -0.027658315 -0.02282233 -0.029629001 -0.031200645 -0.03958285 -0.024956223
yet -0.017296338 0.0052023283 -0.010965507 -0.026768578 -0.035158444 -0.032238133 -0.030561158 -0.025630463 -0.0075514624 -0.024665011 -0.04477903 -0.031103257 -0.02268942 -0.03570857 -0.024878737 -0.032383095
rather -0.027761389 0.00031695515 -0.009822864 -0.04886123 -0.027308581 -0.019835738 -0.018117959 -0.018603079 -0.045095064 -0.04492226 -0.026810426 -0.026172575 -0.025959106 -0.025935503 -0.031012356 -0.018908715
tv -0.03399401 -0.0036431924 -0.029873108 -0.028509961 -0.028047312 -0.039544404 -0.03552618 -0.01865981 -0.011455398 -0.039900564 -0.035120156 -0.029542875 -0.043647554 -0.03393098 -0.03628649 -0.027191853
worst -0.020953352 -0.018185448 -0.012202216 -0.020748092 0.2695324 -0.01647176 -0.02739401 -0.019810045 -0.008077842 -0.027799275 -0.02581124 -0.027591003 0.08882906 0.4044638 -0.030432256 -0.026332619
girl -0.046867885 -0.046979833 -0.009875517 -0.02672058 -0.047202196 -0.027601356 -0.025800396 -0.029678265 -0.013359545 -0.024249248 -0.035193555 -0.033700585 -0.036788024 -0.0360529 -0.03444728 -0.03382106
day -0.0274989 0.023072075 -0.0053513 -0.013454126 -0.03867765 -0.034499127 -0.023761973 -0.01965105 -0.010084974 -0.020930592 -0.031812873 -0.030600674 -0.024899906 -0.035225753 -0.027767122 -0.039748944
sure -0.017035175 0.0025482401 -0.025377182 -0.019410525 -0.046795964 -0.019426648 -0.030887898 -0.040200792 -0.048788097 -0.029816438 -0.028875325 -0.03465327 -0.03359393 -0.03526298 -0.03496927 -0.044957485
fun -0.02490971 -0.030414963 -0.021212546 -0.045627058 -0.035476133 -0.028184772 -0.031545673 -0.035522867 -0.0187414 -0.011320095 -0.028875338 -0.035785906 -0.039752472 -0.025578631 -0.027140982 -0.02751246
hard -0.027917178 -0.01233536 -0.011106438 -0.024344511 -0.035419777 -0.028565705 -0.049686458 -0.036567472 -0.042097677 -0.029758023 -0.026769865 -0.024166096 -0.023874303 -0.035455193 -0.02925545 -0.04760641
woman -0.024821466 0.16971374 -0.023752881 -0.029598046 -0.047387756 -0.026780797 -0.024639977 -0.025613936 -0.023450628 -0.024522806 -0.04330884 -0.032832008 -0.023427632 -0.039411165 -0.02760263 -0.018302988
played -0.021247549 -0.0317135 -0.028873205 -0.02878366 -0.027977275 -0.03976029 -0.044145714 -0.021053497 -0.014465275 -0.02914587 -0.042228144 -0.02403833 -0.034128807 -0.025443738 -0.03319058 -0.024177847
each -0.020324279 0.01712427 -0.027821828 -0.031019246 -0.038031995 -0.028054405 -0.03503392 -0.020014001 -0.011391643 -0.037972063 -0.036926977 -0.02942259 -0.027271027 -0.031042544 -0.037408102 -0.027883582
found -0.029142523 0.008053888 -0.0118250875 -0.04912443 -0.028453317 -0.029861975 -0.016339662 -0.036477007 -0.017400768 -0.042605232 -0.039725386 -0.026766403 -0.026315486 -0.035917975 -0.030888136 -0.03288342
anyone -0.047449566 0.0047447197 -0.017441161 -0.015171165 -0.032477435 -0.037071336 -0.020186974 -0.026731925 -0.012367808 -0.034204237 -0.025249986 -0.027513394 -0.03555086 -0.026521605 -0.036391653 -0.022233361
having -0.015332587 0.0013876073 -0.04282261 -0.03993251 -0.025081463 -0.026655097 -0.029490484 -0.028732296 -0.012372236 -0.030717863 -0.037724994 -0.031763397 -0.029651722 -0.032374848 -0.039395202 -0.019585216
although -0.03260945 -0.011656392 -0.01216702 -0.030686904 -0.042931937 -0.03553201 -0.019185996 -0.034445282 -0.0104247155 -0.02952813 -0.028590942 -0.04058918 -0.022709591 -0.026832469 -0.032281198 -0.020415395
especially -0.040266644 -0.029269373 -0.018515788 -0.04392749 -0.04855864 -0.015940404 -0.01856089 -0.018804904 -0.019004228 -0.024723507 -0.03758606 -0.037931554 -0.04348209 -0.03130858 -0.04498768 -0.02229387
our -0.025524033 0.0049567595 -0.013602279 -0.044911135 -0.038767077 -0.015426574 -0.025358066 -0.018939245 -0.01765909 -0.035797067 -0.03629327 -0.03982675 -0.027541004 -0.028086828 -0.049011912 -0.035069495
believe -0.024205292 -0.014921296 -0.04716908 -0.024448164 -0.03085931 -0.019421935 -0.017185383 -0.024578724 -0.02278607 -0.026352033 -0.026876185 -0.033721 -0.030555332 -0.030053863 -0.031380374 -0.023071812
course -0.019020785 -0.032577444 -0.039503552 -0.027514819 -0.031082444 -0.015041496 -0.04660635 -0.046470787 -0.014216776 -0.024294091 -0.030738832 -0.029707098 -0.020220025 -0.028064134 -0.03222359 -0.018952418
comes -0.031766236 -0.04423642 -0.023223154 -0.026506279 -0.028804174 -0.015405032 -0.017232528 -0.03374102 -0.013039959 -0.0348866 -0.03738817 -0.023730196 -0.031714592 -0.040926613 -0.03467667 -0.047897458
looking -0.015950212 -0.048578776 -0.014194842 -0.026324777 -0.03358344 -0.030673075 -0.040549994 -0.024401672 -0.016668215 -0.040219367 -0.03039545 -0.031909537 -0.036961287 -0.038956024 -0.043792225 -0.02560468
screen -0.020937385 0.0135632865 -0.0132012265 -0.026982423 -0.04090318 -0.014699478 -0.033826936 -0.02290794 -0.009831071 -0.024861848 -0.043623906 -0.02993957 -0.027101487 -0.025853885 -0.02557983 -0.029508702
trying -0.020073442 -0.047516357 -0.04516667 -0.03689946 -0.043492906 -0.027191913 -0.017957227 -0.032034647 -0.012468933 -0.022835022 -0.028873539 -0.028424578 -0.026571948 -0.025720771 -0.029886425 -0.019636264
set -0.02060264 0.040220153 -0.03644967 -0.01777155 -0.03714432 -0.029036367 -0.04996809 -0.024982259 -0.01611773 -0.041981447 -0.024850989 -0.0277662 -0.021653067 -0.03717472 -0.027481401 -0.03497497
goes -0.02534926 -0.02924328 -0.035167575 -0.03919351 -0.04302064 -0.017309964 -0.029386414 -0.031877365 -0.027173936 -0.039870076 -0.04194238 -0.022578442 -0.028520878 -0.039107434 -0.04807904 -0.02706232
looks -0.020143699 0.0009223446 -0.026525991 -0.016552107 -0.039202906 -0.014528826 -0.024266863 -0.030099628 -0.010348994 -0.038306277 -0.026663603 -0.026844483 -0.04744151 0.26143909 -0.016920226 -0.022226704
place -0.043864634 -0.030667175 -0.025409555 -0.025424559 -0.038441986 -0.049256135 -0.025369598 -0.016811239 -0.022102619 -0.02193793 -0.03839321 -0.024117224 -0.041914333 -0.03125181 -0.031492244 -0.022586746
book -0.022471132 0.011935998 -0.014964573 -0.018127035 -0.029097702 -0.041884147 -0.021970812 -0.049314883 -0.010997571 -0.021929001 -0.035415627 -0.022873973 -0.028970888 -0.028945616 -0.026541825 -0.04258715
different 0.12466409 -0.0038063303 -0.035140313 -0.027448762 -0.03797689 -0.035085272 -0.016914211 -0.046123005 -0.010599662 -0.02650975 -0.03314054 -0.031825528 -0.028219644 -0.028535465 -0.035760354 -0.02185536
put -0.03159225 0.008491147 -0.0107134795 -0.03756685 -0.030507216 -0.01717155 -0.027700102 -0.017903151 -0.012497663 -0.037618954 -0.025370674 -0.041799523 -0.023098394 -0.031941626 -0.026117552 -0.030247984
ending -0.031311527 0.020367354 -0.01068626 -0.026841152 -0.03741298 -0.046691585 -0.016638102 -0.021831553 -0.04680554 -0.026550615 -0.037921716 -0.041262053 -0.03012214 -0.025060603 -0.02535119 -0.02001932
money -0.019342767 0.037077043 -0.016341485 -0.013785816 -0.04070459 -0.019050466 -0.047850884 -0.021271437 -0.027383018 -0.0340067 -0.048972916 -0.023957392 -0.025139362 -0.034193248 -0.043231864 -0.029557137
maybe -0.046227038 -0.025566423 -0.016773306 -0.02144186 -0.03272604 -0.018669548 -0.025678894 -0.041281056 -0.010058277 -0.034389246 -0.026755605 -0.03774765 -0.023227572 -0.023876462 -0.029596008 -0.021926144
once -0.02296726 0.10959874 -0.010136717 -0.024880072 -0.035300802 -0.032364033 -0.018317996 -0.049839366 -0.017721098 -0.036528062 -0.034507368 -0.03595213 -0.040048975 -0.03683964 -0.026187066 -0.019752223
sense -0.014595262 0.01806483 -0.01045842 -0.027654875 -0.031279806 -0.015164203 -0.03408976 -0.020018993 -0.015573166 -0.040566277 -0.031160003 -0.027481496 -0.03237827 -0.024226107 -0.028971318 -0.019833002
reason -0.019003421 0.04104275 -0.048960056 -0.019544354 -0.034816075 -0.017253814 -0.029663775 -0.034780703 -0.026131107 -0.024359357 -0.04562056 -0.026168965 -0.034171022 -0.02400321 -0.036956143 -0.028067157
true -0.037371077 0.22680423 -0.020370875 -0.034792326 -0.035278317 0.13378747 -0.033750087 -0.029661227 -0.02049494 -0.03172988 -0.04046489 -0.025510978 -0.038636707 -0.031667225 -0.029126896 -0.03347949
actor -0.016921688 -0.028887762 -0.015397256 -0.008302185 -0.038585376 -0.015416096 -0.033905268 -0.02327907 -0.045396436 -0.047221363 -0.033245582 -0.026663706 -0.022842364 -0.034737032 -0.028558386 -0.024376856
everything -0.022848481 0.09471724 -0.009926377 -0.030893818 -0.03289416 -0.033921026 -0.029036498 -0.031418815 -0.021518363 -0.023903323 -0.037964676 -0.028681299 -0.030927079 -0.026218085 -0.03295528 -0.03530331
wasn't -0.019148137 -0.0024217255 -0.0127186775 -0.026531914 -0.027903406 -0.015800739 -0.035339583 -0.024620522 -0.012114275 -0.027067905 -0.025034074 -0.034069743 -0.024770396 -0.0248078 -0.04826584 -0.029817767
shows -0.03466765 -0.019017054 -0.01284728 -0.037038695 -0.03504488 -0.03391229 -0.024447909 -0.021740904 -0.023493834 -0.024548555 -0.0386903 -0.017932175 -0.02449031 -0.0395414 -0.049751855 -0.024186112
dvd -0.038795777 -0.009914003 -0.034178518 -0.017737597 -0.03664959 -0.040955056 -0.02120577 -0.026724055 -0.008279729 -0.022374135 -0.026457353 -0.03617819 -0.02094611 -0.044224408 -0.025070963 -0.027589617
three -0.019317253 -0.010077704 -0.020363444 -0.042760648 -0.031214597 -0.04355791 -0.033703998 -0.024322793 -0.02847606 -0.038110137 -0.025136773 -0.026562413 -0.03526678 -0.02350739 -0.03263158 -0.026422983
worth -0.032410398 -0.02361244 -0.03990841 -0.015483623 -0.03086781 -0.02590921 -0.019171944 -0.020946765 -0.018217187 -0.03995685 -0.028613353 -0.030164 -0.041103505 -0.03100008 -0.031941347 -0.026740404
year -0.04774964 0.018697824 -0.015458286 -0.014476646 -0.03501471 -0.015884466 -0.016905604 -0.017991437 -0.03576392 -0.02296794 -0.034049645 -0.023449816 -0.033021025 -0.027240822 -0.026163992 -0.018263321
job -0.034259856 -0.040855814 0.20531772 -0.018436264 -0.03838126 -0.032624245 -0.02622335 -0.021325663 -0.012411941 -0.02728102 -0.041985944 -0.037061896 -0.023937978 -0.023592316 -0.028797038 -0.03176017
main -0.016931722 0.017125878 -0.010687444 -0.026222413 -0.03011475 -0.020408332 -0.018726857 -0.020173151 -0.047189213 -0.028691078 -0.038511433 -0.042586267 -0.03943006 -0.026971005 -0.048886836 -0.019572394
someone -0.041329764 0.037651073 -0.049331676 -0.019908924 -0.044553887 -0.026583029 -0.034787368 -0.047241997 -0.021719646 -0.027884752 -0.02724181 -0.025492324 -0.025138784 -0.023437642 -0.030172348 -0.023446254
together -0.024142694 -0.038496125 -0.02258413 -0.047879066 -0.045693364 -0.023596458 -0.018780947 -0.018241355 -0.008013503 -0.030097716 -0.036653303 -0.043612696 -0.039937425 -0.026464444 -0.04034978 -0.018228766
watched -0.023865987 0.0038516633 -0.018595029 -0.016694298 -0.027336895 -0.025344253 -0.023130864 -0.018940069 -0.04533558 -0.023315933 -0.028133461 -0.030971423 -0.038061 -0.0300945 -0.028520145 -0.027239097
play -0.018916667 -0.044291507 -0.03092562 -0.024053892 -0.02839178 -0.019720066 -0.018723806 -0.018745156 -0.008820253 -0.03798922 -0.048681665 -0.023279432 -0.029768262 -0.03135341 -0.024829382 -0.017452491
american -0.019504715 -0.03814547 -0.008217346 -0.023958659 -0.04056524 -0.023626335 -0.028476967 -0.029294895 -0.0085526705 -0.022338254 -0.044571817 -0.034402695 -0.024793543 -0.027356049 -0.030067861 -0.020791233
plays -0.020645887 0.015029181 -0.03255248 -0.022217512 -0.02917307 -0.027883105 -0.041093327 -0.019780867 -0.030569399 -0.028544094 -0.030206108 -0.03263921 -0.026531098 -0.039719664 -0.026190208 -0.01748619
1 -0.016498113 0.019446302 -0.015537642 -0.018332556 -0.026529517 -0.035858165 -0.03370776 -0.016838612 -0.0077938475 -0.022986287 0.2603024 -0.025015626 0.36988667 -0.03599614 -0.025621574 -0.0451723
said -0.015648918 0.03244039 -0.04021007 -0.017565835 -0.030494489 -0.020622386 -0.039225243 -0.026628494 -0.018694032 -0.039320372 -0.026151992 -0.036551133 -0.031057479 -0.033090137 -0.047859848 -0.032970447
effects -0.018498631 0.039206054 -0.015936982 -0.04467989 -0.027256127 -0.044911947 -0.0282317 -0.03041272 -0.009878605 -0.03722114 -0.028256962 -0.025545344 -0.031810462 -0.024773162 -0.030425576 -0.024101222
later -0.019530622 0.21236527 -0.042333927 -0.02551588 -0.027964784 -0.043965545 -0.04382334 -0.034627065 -0.0068714707 -0.033052895 -0.03776583 -0.030640215 -0.027672194 -0.023624718 -0.028845206 -0.031145608
takes -0.03185 -0.029715562 -0.02191642 -0.02734718 -0.04312812 -0.035036765 -0.018831888 -0.017150411 -0.011683493 -0.023152338 -0.027568653 -0.029266639 -0.026502024 -0.030152975 -0.038805675 -0.02127222
instead -0.021347381 0.07522502 -0.017608866 -0.014532999 -0.035327442 -0.021590734 -0.017074954 -0.027972909 -0.01034519 -0.02185476 -0.02969749 -0.035721667 -0.036717236 -0.038128328 -0.028124562 -0.028276378
seem -0.039393283 -0.011424471 -0.014190029 -0.026737956 -0.039638363 -0.03559922 -0.02944466 -0.01808284 -0.011068283 -0.04317857 -0.02899339 -0.030332422 -0.03370078 -0.026115926 -0.03529005 -0.033143435
beautiful 0.25642994 0.03879663 -0.042771768 -0.023874264 -0.032471173 -0.01918538 -0.03133241 -0.025115645 -0.011332534 -0.022864604 -0.031095156 -0.024200182 -0.025114108 -0.026743513 -0.044466842 -0.021706538
john -0.044052828 0.012786914 -0.011349676 -0.024941498 -0.035491418 -0.024169588 -0.022194477 -0.03669126 -0.019517481 -0.02493751 -0.036444098 -0.032669067 -0.032250527 -0.04788853 -0.030641217 -0.01785187
himself -0.017985094 0.0025271066 -0.031928994 -0.015007204 -0.027737625 -0.03020887 -0.03166006 -0.038708232 -0.014446408 -0.041353393 -0.02928645 -0.029171446 -0.023089452 -0.030094894 -0.03932161 -0.025736332
version -0.029727548 -0.030587722 -0.01598512 -0.023826146 -0.032294728 -0.019065471 -0.017642938 -0.022397108 -0.02630893 -0.022025753 -0.039548423 -0.029019952 -0.02384969 -0.030122932 -0.033557877 -0.042509258
audience -0.029202752 -0.0012422204 -0.014025945 -0.023615576 -0.02588476 -0.031153489 -0.020927744 -0.01798284 -0.011627564 -0.0384369 -0.025715299 -0.022422014 -0.047886457 -0.02358095 -0.027345346 -0.021589734
high -0.017021962 0.008133471 -0.02003685 -0.02782047 -0.039509147 -0.019604472 -0.033021584 -0.021517703 -0.03584204 -0.04193461 -0.031140745 -0.034316495 -0.027190689 -0.029076526 -0.025375849 -0.023933241
house -0.04440073 -0.04637903 -0.025702378 -0.009422969 -0.026433751 -0.014808676 -0.023853064 -0.020280888 -0.010768929 -0.032819975 -0.029642029 -0.02783039 -0.031659905 -0.033419754 -0.042557668 -0.01959412
night -0.03435619 0.10586848 -0.011569003 -0.027395897 -0.029217329 -0.035253607 -0.026306761 -0.027462099 -0.028193701 -0.03458394 -0.028432067 -0.03928536 -0.03211038 -0.024749987 -0.026460664 -0.03302028
during -0.041564427 -0.013622664 -0.026628098 -0.018487003 -0.028361453 -0.015868876 -0.026144719 -0.032937344 -0.008684326 -0.03315435 -0.043072533 -0.03857261 -0.03914354 -0.024734547 -0.027069392 -0.016841484
everyone -0.024299897 0.011171281 -0.045761015 -0.041664384 -0.03685248 -0.017386917 -0.033865325 -0.023121178 -0.041809738 -0.025928464 -0.033845194 -0.024406685 -0.025184073 -0.03626775 -0.025306044 -0.029956063
left -0.018066838 -0.04174038 -0.021415545 -0.018601438 -0.026481343 -0.040432572 -0.034172345 -0.03910326 -0.0073111085 -0.022898605 -0.03003363 -0.038843177 -0.021117765 -0.02240844 -0.024200011 -0.024183262
special -0.01826124 0.032380704 -0.013081666 -0.02606411 -0.03124996 -0.016299952 -0.03564554 -0.024323681 -0.0456779 -0.032423563 -0.030317772 -0.03855923 -0.021619488 -0.02280932 -0.027463257 -0.0321781
seeing -0.040885605 0.011737883 -0.025734628 -0.015465513 -0.04342207 -0.014791857 -0.023691224 -0.027108379 -0.013793274 -0.028380511 -0.02645524 -0.04946592 -0.027125193 -0.02535091 -0.026014742 -0.046902325
half -0.030415952 -0.0051898584 -0.010459613 -0.029852211 -0.029604098 -0.01616613 -0.023719694 -0.022840455 -0.021280838 -0.035155866 -0.025382416 -0.043935634 -0.037386194 -0.037285365 -0.034532066 -0.02477663
excellent -0.018066641 -0.046448052 0.28290665 0.18753307 -0.03380126 -0.019746559 -0.026213385 -0.041654456 -0.021038497 -0.042011537 -0.02705558 -0.030419134 -0.024621407 -0.037225906 -0.03632478 -0.018835658
wife -0.018605022 0.019638423 -0.017385699 -0.02185993 -0.028653415 -0.04886725 -0.04784888 -0.04253173 -0.04695517 -0.029466001 -0.028786933 -0.02922519 -0.044207215 -0.02320577 -0.02581412 -0.017536955
star -0.019030927 -9.379536e-05 -0.008269311 -0.014857324 -0.027378118 -0.03316231 -0.017425252 -0.026975293 -0.02005414 -0.04799774 -0.028127212 -0.025137652 -0.048016597 -0.027508233 -0.04271931 -0.037270963
shot -0.021624086 -0.026727308 -0.013944209 -0.014565153 -0.027015688 -0.03973472 -0.01847809 -0.020959029 -0.01372446 -0.033872582 -0.026601473 -0.024736924 -0.026919557 -0.027808703 -0.0335186 -0.026052186
war -0.03096507 0.03644379 -0.021629766 -0.013206519 -0.028575672 -0.02027521 -0.021615509 -0.020358432 -0.006951064 -0.03251841 -0.026970712 -0.02335006 -0.036012642 -0.030620588 -0.046397664 -0.031324066
idea -0.017875383 0.010115083 -0.03538538 -0.023003576 -0.03455281 -0.017746206 -0.028101504 -0.040610086 -0.008101941 -0.037980713 -0.029774383 -0.027602017 -0.038043875 -0.025418844 0.16952227 -0.03009224
nice -0.017022848 0.034775045 -0.0191575 -0.014644591 -0.032938708 -0.030082114 -0.01659873 -0.048394393 -0.020426556 -0.025293281 -0.038678195 -0.038299203 -0.022934895 -0.045263696 -0.042921104 -0.017570734
black -0.03891351 -0.030782033 -0.010047995 -0.046121683 -0.027131459 -0.049640168 -0.03308299 -0.026773164 -0.027466321 -0.032288432 -0.032273646 -0.03334184 -0.026377773 -0.03803848 -0.04009765 -0.021140438
less -0.019795125 0.021196771 -0.018227175 -0.015976831 -0.0387037 -0.016512657 -0.017479494 -0.022387017 -0.013484591 -0.029689554 -0.025350254 -0.037929535 -0.019612888 -0.043258395 -0.025009185 -0.022620276
mind -0.017263956 -0.004808165 -0.012740401 -0.018996846 -0.028088275 -0.03357186 -0.033961713 -0.03902924 -0.011015385 -0.036937 -0.03021667 -0.02944075 -0.029803121 -0.032470103 -0.031232018 -0.023253366
simply -0.022217024 -0.013194978 -0.014809585 -0.028226782 -0.04060935 -0.032465667 -0.020086091 -0.021150772 -0.029014993 -0.02738177 -0.02234563 -0.040431596 -0.02513195 -0.03528515 -0.042820014 -0.03037969
read -0.017270805 0.025959563 -0.016286945 -0.014309781 -0.046064045 -0.015905714 -0.020107452 -0.018342685 -0.0114789875 -0.027263615 -0.041383505 -0.032087646 -0.03045695 -0.032621354 -0.026952539 -0.022654137
second -0.017714137 0.01172936 -0.010904255 -0.036046136 -0.034380432 -0.040735267 -0.03227959 -0.026316537 -0.010082 -0.023634018 -0.03592564 -0.024741223 -0.024705186 -0.034310114 -0.031936467 -0.031396165
else -0.019259421 -0.03918674 -0.010842327 -0.014823311 -0.02974356 -0.021710612 -0.017544083 -0.019087914 -0.0191249 -0.023407204 -0.02675475 -0.03425501 -0.021018563 -0.027606381 -0.03614227 -0.03134185
you're -0.017356388 -0.015290391 -0.013784245 -0.02770927 -0.028779106 -0.016878128 -0.019653268 -0.02990926 -0.017969333 -0.02899841 -0.03982663 -0.033143193 -0.03314229 -0.044195354 -0.03049324 -0.018006591
father -0.021625089 -0.011966847 -0.010592877 -0.039033163 -0.032975078 -0.023692418 -0.02564733 -0.04256612 -0.010018984 -0.036973532 -0.03799345 -0.02506291 -0.038446024 -0.023434851 -0.027077306 -0.048268236
fan -0.024155006 -0.013951372 -0.042956628 -0.022729415 -0.027591728 -0.028586896 -0.015902163 -0.028653253 -0.024197865 -0.029198885 -0.03231411 -0.02438713 -0.02488693 -0.04538987 -0.029779986 -0.021143114
poor -0.021475185 -0.040955376 -0.04712422 -0.032839417 -0.032087166 -0.022086823 -0.017549872 -0.048324086 -0.012364305 -0.02641795 0.25631064 -0.023549298 -0.00945821 -0.032904416 0.23257606 -0.029423323
help -0.032719493 -0.01934178 -0.036097348 -0.047367204 -0.030116126 -0.014515309 -0.030451953 -0.016814446 -0.011651039 -0.03904391 -0.031314623 -0.028391384 -0.035416614 -0.031424712 -0.03178405 -0.027967066
completely -0.025774537 -0.032162823 -0.015248378 -0.017082864 -0.034717795 -0.046908356 -0.026866077 -0.030335093 -0.017424373 -0.0472577 -0.036275446 -0.02845626 -0.021843806 -0.03240329 -0.026476927 -0.029859532
death -0.028101169 -0.02270925 -0.012420751 -0.012836382 -0.026527071 -0.020198582 -0.02036994 -0.01633538 -0.011710644 -0.0449796 -0.025552232 -0.026256138 -0.035055183 -0.027559413 -0.03233036 -0.045383837
3 -0.022547375 -0.009574927 -0.014914761 -0.020131292 -0.04852233 -0.0499959 -0.038537156 -0.025755776 -0.01063304 -0.022322254 -0.025889361 -0.030122899 -0.022096489 -0.023457393 -0.02527252 -0.01871979
used -0.03516053 0.037705515 -0.012910812 -0.026748002 -0.03614036 -0.03847424 -0.019379469 -0.026491366 -0.013097011 -0.037574865 -0.026150579 -0.023899125 -0.0219561 -0.028956521 -0.025827128 -0.01743533
home -0.036167573 0.014907096 -0.021025397 -0.049579393 -0.040835187 -0.023681002 -0.03851211 -0.024678487 -0.021102177 -0.02261666 -0.03545413 -0.04431292 -0.028827274 -0.030829905 -0.040720955 -0.021552231
either -0.019929597 0.022125509 -0.047990095 -0.015135245 -0.045193482 -0.023085931 -0.017878223 -0.02358812 -0.007238118 -0.024577957 -0.04107214 -0.028604722 -0.0058670565 -0.025506858 -0.0281553 -0.033243813
short -0.032460753 0.0059892535 -0.011709559 -0.016720194 -0.02608506 -0.025023509 -0.03126607 -0.01874654 -0.0074520227 -0.021521227 -0.030213773 -0.02234718 -0.03447131 -0.04663689 -0.039583843 -0.018856706
line -0.020924484 -0.00033200905 -0.020333696 -0.017203934 -0.027277049 -0.015539193 -0.026622653 -0.019994913 -0.011975888 -0.030981632 -0.03979625 -0.02801083 -0.025581952 -0.033421315 -0.026343834 -0.021681357
given -0.028951643 0.004573427 -0.021695167 -0.044980682 -0.027328104 -0.014420035 -0.027505515 -0.04054614 -0.016214292 -0.022647692 -0.026503857 -0.041097615 -0.021694114 -0.022218898 -0.042267956 -0.019409446
men -0.021442454 0.021018956 -0.022728443 -0.01633178 -0.030240905 -0.032793306 -0.024493972 -0.022766778 -0.028804852 -0.03688071 -0.047616925 -0.017014867 -0.021524496 -0.02422176 -0.039843272 -0.024613941
top -0.037528418 0.00031995773 -0.03362365 -0.01972028 -0.041626193 -0.03248285 -0.021036811 -0.02944315 -0.027783584 -0.04924308 -0.03746283 -0.028510226 -0.03569243 -0.027420783 -0.037835486 -0.020857159
dead -0.018770827 -0.002768468 -0.009088283 -0.01977419 -0.049151935 -0.030605828 -0.01912979 -0.024715366 -0.012064846 -0.03492448 -0.030582247 -0.041345287 -0.023483103 -0.024603719 -0.02869402 -0.025960695
budget -0.019384947 -0.010866024 -0.037496604 -0.025362615 -0.027739674 -0.024664883 -0.025234306 -0.02150317 -0.0146740675 -0.031726837 0.07845523 -0.038643766 -0.043442108 -0.024603179 -0.040785715 -0.026185358
try -0.017867662 -0.02706188 -0.022039765 -0.024327433 -0.02640315 -0.01590057 -0.02340269 -0.029638657 -0.023766685 -0.027323782 -0.02743183 -0.03358043 -0.035078052 -0.031808306 -0.03422587 -0.018020608
performances -0.026697498 -0.009027671 -0.037018012 -0.021942163 -0.031111682 -0.023263294 -0.026854528 -0.025563885 -0.018073736 -0.03406135 -0.026979797 -0.030105688 -0.022051947 -0.027824545 -0.031185554 -0.036293935
wrong -0.025537252 0.039451253 -0.040552758 -0.030521901 -0.030415913 -0.023521885 -0.020215755 -0.024715375 -0.009544122 -0.03211099 -0.045590606 -0.027828606 -0.02224813 -0.025476538 -0.03791691 -0.024179017
classic -0.016547047 0.0186597 0.16173315 -0.046092905 -0.026729519 -0.039460383 -0.02040025 -0.030125288 -0.04805225 -0.031360764 -0.032710582 -0.03462644 -0.03232161 -0.028808989 -0.04530039 -0.018152159
boring -0.032678556 -0.0037468672 -0.0099746315 -0.029212788 -0.036875248 -0.019517878 -0.033136323 0.45835674 -0.0136181 -0.03559803 -0.047442306 -0.037839778 -0.024788141 -0.03328706 -0.034689717 -0.02723136
enjoy -0.021799648 -0.013900757 -0.027086444 -0.02474767 -0.044052448 -0.015020413 -0.033498555 -0.023256054 -0.027640259 -0.024626305 -0.029785985 -0.026058208 -0.037172653 -0.024071045 -0.043585874 -0.04372703
need -0.02326123 -0.022296 -0.010971509 -0.031236768 -0.03369903 -0.028812017 -0.03949461 -0.040881515 -0.014661165 -0.02379155 -0.026967151 -0.025377002 -0.032205667 -0.024586039 -0.041867334 -0.020474447
rest -0.025825799 0.037441798 -0.015931167 -0.01817134 -0.04540498 -0.03283571 -0.043171655 -0.020847935 -0.045704305 -0.033533476 -0.03382725 -0.027481562 -0.039612077 -0.02911702 -0.04000207 -0.022685856
use -0.024756253 -0.026733506 -0.0116769625 -0.033660248 -0.03001519 -0.024013232 -0.01748335 -0.02286228 -0.018087909 -0.033885214 -0.03360598 -0.041686356 -0.03388025 -0.03932094 -0.04410552 -0.030931959
kids -0.026175 -0.0152907595 -0.021929165 -0.020062072 -0.026588274 -0.037955843 -0.016378429 -0.049676027 -0.042110432 -0.034011226 -0.029847367 -0.024208441 -0.029303102 -0.028484572 -0.031066066 -0.025605416
hollywood -0.016590098 -0.017125726 -0.016544007 -0.019417668 -0.03281096 -0.020822817 -0.039513957 -0.032269593 -0.014291696 -0.027804507 -0.041979846 -0.029045587 -0.022032022 -0.0405023 -0.022841522 -0.025318954
low -0.038634337 0.01426754 -0.023078976 -0.018755017 -0.035860594 -0.033179693 -0.018365871 -0.019518297 -0.01836691 -0.04184265 -0.035772353 -0.035032846 0.09192386 -0.026609505 -0.02897475 -0.018560885
production -0.01614867 0.020238068 -0.014079418 -0.041003324 -0.028033197 -0.02090281 -0.026749702 -0.020801634 -0.012890325 -0.028707346 -0.0396066 -0.032195754 -0.029467484 -0.025386889 -0.02829708 -0.027737333
until -0.040988315 -0.030742694 -0.011470117 -0.01410141 -0.0400046 -0.016491847 -0.02387412 -0.019592589 -0.010542576 -0.023191292 -0.029150408 -0.029181749 -0.024947852 -0.036048647 -0.027777929 -0.023167003
along -0.01598661 -0.015934207 -0.012847542 -0.014869462 -0.03763211 -0.045527317 -0.02262174 -0.018404236 -0.02967993 -0.024513042 -0.03409579 -0.024967091 -0.021994349 -0.024049459 -0.04162191 -0.027397195
full -0.0351825 -0.04201722 -0.027434487 -0.0294278 -0.0370976 -0.015506968 -0.023854403 -0.02694975 -0.0101274885 -0.035197873 -0.028966667 -0.029764038 -0.027003536 -0.0277834 -0.031539436 -0.047329593
friends -0.029469622 -0.024237527 -0.01454793 -0.01480451 -0.046386003 -0.03628708 -0.034340344 -0.01622456 -0.010350681 -0.024096362 -0.027398037 -0.024741625 -0.028101169 -0.02475871 -0.025494576 -0.022325106
camera -0.017749585 0.03660185 -0.02413898 -0.03947393 -0.02827741 -0.04079608 -0.026243173 -0.022938924 -0.0011850451 -0.034555007 -0.03880142 -0.049218085 -0.02879913 -0.033782087 -0.038939804 -0.025939072
truly -0.018533759 0.028356064 -0.025712416 -0.024959875 -0.027981797 -0.028887866 -0.03404511 -0.018067243 -0.006965352 -0.022138793 -0.025201907 -0.032021184 -0.049467888 -0.0263767 -0.027520781 -0.031833746
women -0.015565258 -0.013371814 -0.044098258 -0.008587477 -0.03915608 -0.013851033 -0.020577494 -0.015938485 -0.010030058 -0.031197652 -0.039359964 -0.031239526 -0.02754582 -0.02914404 -0.039002847 -0.027287833
awful -0.040313482 -0.030158376 -0.022138225 -0.031861674 -0.038556803 -0.025975492 -0.02785363 -0.04531443 -0.010063525 -0.048028626 0.26518044 -0.035777517 -0.037035834 -0.036340248 -0.03556405 -0.021710247
video -0.028937574 0.015287492 -0.014416331 -0.018975057 -0.04381722 -0.028709674 -0.022550935 -0.04300443 -0.007484137 -0.040506333 -0.026040774 -0.026781548 -0.029279971 -0.034242645 -0.040816534 -0.020920122
next -0.026179133 -0.04868592 -0.011759865 -0.018836796 -0.03324229 -0.015245849 -0.027603565 -0.033063293 -0.011199204 -0.022138705 -0.037091292 -0.032855574 -0.028295698 -0.04860113 -0.03202176 -0.024130674
tell -0.01920469 0.027078483 -0.015291132 -0.044153858 -0.0334519 -0.018601816 -0.02287521 -0.023988688 -0.015952773 -0.027355067 -0.029731754 -0.04553589 -0.021285307 -0.040560223 -0.048873354 -0.021099115
remember -0.016945131 -0.01889125 -0.038553514 -0.02806335 -0.037625663 -0.02038739 -0.01690165 -0.03383022 -0.008453306 -0.020714276 -0.03229159 -0.025742607 -0.042178582 -0.04091039 -0.042647637 -0.024750182
couple -0.028866924 0.005064357 -0.019173618 -0.01501796 -0.027608642 -0.029352129 -0.017038178 -0.016695939 -0.009870018 -0.023950538 -0.03048097 -0.03339798 -0.022840593 -0.025382511 -0.026044825 -0.016520975
stupid -0.01695432 0.02881315 -0.040642906 -0.040580224 -0.034584686 -0.026612414 -0.027158631 -0.026107352 -0.030262077 -0.025546392 -0.033221256 -0.027309446 -0.03629303 -0.040600777 0.3292733 -0.022354312
start -0.020855367 -0.0048661716 -0.014999307 -0.022065574 -0.033625327 -0.019415984 -0.0237933 -0.017047498 -0.020121206 -0.028193474 -0.045729578 -0.025228405 -0.028478755 -0.023130182 -0.025317376 -0.038498662
stars -0.046391558 0.006432403 -0.021021143 -0.014840271 -0.043026686 -0.01836122 -0.022514503 -0.019887546 -0.011818582 -0.02252092 -0.026904523 -0.023516098 -0.028812056 -0.026900915 -0.034174826 -0.028693711
perhaps -0.021602407 -0.041221023 -0.011268997 -0.02569977 -0.043755177 -0.042408157 -0.01976437 -0.022034578 -0.038761448 -0.026372677 -0.03143521 -0.0307362 -0.032028176 -0.03751955 -0.04191824 -0.02481864
sex -0.018845703 -0.03331846 -0.020776242 -0.012695087 -0.02735794 -0.021526147 -0.019069923 -0.023043407 -0.010369841 -0.03515976 -0.042862307 -0.04695747 -0.025344217 -0.034475036 -0.02672666 -0.032814696
mean -0.031555273 -0.03479601 -0.010208356 -0.040052153 -0.03103893 -0.014658924 -0.020352501 -0.032541193 -0.008701785 -0.03467288 -0.042959686 -0.033469606 -0.032245 -0.04129779 -0.03977362 -0.044624057
came -0.021823967 -0.021493316 -0.023858525 -0.04398307 -0.029240299 -0.014692204 -0.04268799 -0.025200728 -0.04665147 -0.022179922 -0.04470209 -0.027235562 -0.028690897 -0.024555637 -0.024863362 -0.038827945
recommend -0.03366982 0.013541136 -0.04211675 -0.014299919 -0.029627344 -0.025344761 -0.045318555 -0.032547772 0.19903931 -0.025029443 -0.03285517 -0.0233844 -0.031829085 -0.027602876 -0.028566405 -0.035249107
let -0.032473877 -0.018840432 -0.013454463 -0.04060427 -0.035113145 -0.019210618 -0.021456217 -0.018523674 -0.010141753 -0.029400531 -0.025402308 -0.02109213 -0.032628812 -0.048070896 -0.028944606 -0.036323726
moments -0.016058171 0.12366446 -0.021832285 -0.033607863 -0.045654166 -0.017444098 -0.02141566 -0.025989626 -0.049708035 -0.021650216 -0.036902927 -0.044413447 -0.035847615 -0.034831583 -0.0283365 -0.035222862
wonderful -0.015488557 -0.03248447 -0.046207547 -0.018660253 -0.030913573 -0.024497557 -0.027695676 -0.023490787 -0.04027816 0.21864812 -0.026456062 -0.022510957 -0.025184045 -0.031379364 -0.027257605 0.1944319
episode -0.017823402 -0.011679281 -0.016426511 -0.016905203 -0.04211267 0.0032525512 -0.031375546 -0.04245852 -0.037901737 -0.035648763 -0.027606105 -0.023598317 -0.0279642 -0.04157249 -0.03221906 -0.031364836
understand -0.019189289 -0.03963343 -0.010110014 -0.01945848 -0.030899525 -0.014117594 -0.014875156 -0.018665457 -0.009908384 -0.04069066 -0.025476286 -0.023929961 -0.027706755 -0.02270785 -0.038602248 -0.020292751
small -0.021676907 0.014666248 -0.011708014 -0.016727183 -0.03241145 -0.0401541 -0.022160364 -0.022789415 -0.010344565 -0.02395936 -0.03246845 -0.023255432 -0.027030192 -0.022958118 -0.04147762 -0.033522666
face -0.02237302 -0.017725695 -0.018956175 -0.013492526 -0.028249884 -0.0434813 -0.02024318 -0.035499237 -0.02292403 -0.030922344 -0.03943968 -0.02685306 -0.023225807 -0.02280457 -0.027260909 -0.025036069
terrible -0.018179541 0.037819747 -0.014306166 -0.040230572 -0.03609983 -0.018120138 -0.033529654 -0.02905934 -0.017719187 -0.036381867 0.4023342 -0.03216375 -0.022701895 -0.029893314 -0.04473666 -0.024690904
playing -0.02392751 -0.021001017 -0.021307142 -0.021501143 -0.029492276 -0.023767043 -0.019806182 -0.030256247 -0.023095444 -0.028881399 -0.03725549 -0.03180657 -0.02539711 -0.02728407 -0.034655746 -0.030210782
school -0.020530138 0.031559575 -0.037621997 -0.016454708 -0.026831461 -0.049119364 -0.020200867 -0.04003056 -0.008392837 -0.02437511 -0.028145289 -0.025579846 -0.039122015 -0.028328907 -0.02980965 -0.03021034
getting -0.0164961 -0.026992274 -0.025654642 -0.022893513 -0.028292235 -0.019467494 -0.027481819 -0.028088817 -0.021146767 -0.031098867 -0.028336413 -0.034237932 -0.0221428 -0.037700087 -0.025989756 -0.025473977
written -0.03797529 -0.026565028 -0.020830942 -0.013737716 -0.026644789 -0.015733432 -0.036763966 -0.027391309 -0.009686362 -0.024775997 -0.032828443 -0.023339203 -0.03498461 -0.025684686 -0.03463732 -0.049360216
doing -0.015541206 0.002160836 -0.010342134 -0.021065129 -0.026078654 -0.016144697 -0.027719418 -0.033240013 -0.02430979 -0.02768796 -0.038704045 -0.031834543 -0.020272082 -0.029433817 -0.034233883 -0.018636674
often -0.04368626 0.006881237 -0.027453566 -0.03104098 -0.028120248 -0.014265778 -0.017311912 -0.025854368 -0.014187093 -0.038980078 -0.041662153 -0.03846412 -0.023858285 -0.037038628 -0.037275173 -0.021764522
keep -0.01673456 0.010066666 -0.011247354 -0.016715663 -0.033283997 -0.027722144 -0.019553373 -0.025725937 -0.014169273 -0.027189776 -0.02752521 -0.035033833 -0.040294793 -0.03702111 -0.029361613 -0.025248278
early -0.022755591 -0.025859153 -0.012701658 -0.020831313 -0.037277758 -0.020267984 -0.022774491 -0.035197794 -0.03204242 -0.046368003 -0.033269275 -0.031376198 -0.026127065 -0.02878586 -0.029887928 -0.025742996
name -0.031580232 0.03831246 -0.015227999 -0.04966686 -0.033412285 -0.049706724 -0.016961344 -0.016779197 -0.044554483 -0.02734863 -0.030797098 -0.023191428 -0.029073076 -0.03483548 -0.028831376 -0.026534881
perfect -0.022174902 0.0066011176 -0.010146402 0.35804766 -0.042249527 0.101507284 -0.047834694 -0.019871337 -0.02010907 -0.039245915 -0.038402427 -0.027764343 -0.035546362 -0.0378171 -0.031420972 -0.027358234
style -0.027165676 -0.037427317 -0.019343628 -0.02053288 -0.031624597 -0.019452523 -0.04586164 -0.042349923 -0.020833949 -0.024871519 -0.026968759 -0.024281299 -0.020816863 -0.036746938 -0.03737332 -0.035330873
human -0.018891875 -0.0068685785 -0.014572448 -0.031692743 -0.030997476 -0.0145609 -0.025250806 -0.024031997 -0.011854209 -0.03500238 -0.031300694 -0.021446891 -0.036873553 -0.04842446 -0.025327314 -0.029063154
definitely -0.020899786 -0.014355779 -0.021806693 0.26768798 -0.043286458 -0.046154298 -0.020914054 -0.034894686 -0.022072103 -0.041276213 -0.029523008 -0.027992217 -0.024863584 -0.024009656 -0.040578183 -0.029472494
gives -0.019410456 0.03363153 -0.011143247 -0.021944426 -0.025852624 -0.015628142 -0.032201253 -0.03682745 -0.048534345 -0.02803087 -0.030881582 -0.028334836 -0.049536016 -0.04056789 -0.03215666 -0.03116605
others -0.04591162 -0.0467968 -0.03914132 -0.017164307 -0.044100262 -0.020008348 -0.019937476 -0.017949592 -0.010596123 -0.036260642 -0.024703348 -0.023765907 -0.029312363 -0.03091074 -0.035294127 -0.01920638
itself -0.024872597 0.0018820167 -0.04608811 -0.042989194 -0.030112056 -0.014644149 -0.046675123 -0.043022692 -0.017609619 -0.04071492 -0.026530946 -0.026189048 -0.023384525 -0.023832262 -0.0401701 -0.038636126
lines -0.01772703 -0.025612736 -0.017003495 -0.0270594 -0.028384186 -0.01988037 -0.04740089 -0.017272985 -0.010212753 -0.03838638 -0.03689619 -0.026102114 -0.021634206 -0.030470822 -0.030680431 -0.033828
live -0.027704526 -0.023610247 -0.012980819 -0.047508385 -0.04817723 -0.01622099 -0.03349476 -0.022189166 -0.009692073 -0.024689771 -0.04274871 -0.032634422 -0.04242884 -0.038611863 -0.036427688 -0.020607408
become -0.022566672 -0.047374226 -0.019943934 -0.0139515875 -0.034675907 -0.029522562 -0.022904834 -0.029243167 -0.008535858 -0.022755602 -0.026818283 -0.04384301 -0.024780715 -0.03011597 -0.031418763 -0.018874174
dialogue -0.017966047 0.0012816079 -0.011352414 -0.02788603 -0.04993364 -0.014983868 -0.049021374 -0.033881664 -0.016367503 -0.027149905 0.11914717 -0.027581887 -0.04694078 -0.038799386 -0.03314614 -0.016866233
person -0.01988349 -0.03605026 -0.010108367 -0.048616078 -0.02730226 -0.026240265 -0.01625498 -0.041414224 -0.011195289 -0.02830964 -0.036645506 -0.022957336 -0.047532167 -0.04113588 -0.026148563 -0.03238842
lost -0.029876351 0.02802192 -0.018980946 -0.024741495 -0.025866354 -0.030660558 -0.028695647 -0.032539062 -0.043287754 -0.02289771 -0.03092982 -0.029446155 -0.048268367 -0.023496889 -0.045579076 -0.022897765
finally -0.01800032 0.023248564 -0.020765355 -0.02401131 -0.031656235 -0.024002494 -0.029228788 -0.023062587 -0.009656872 -0.026796168 -0.046133973 -0.042027213 -0.02173725 -0.03891183 -0.033275567 -0.026961675
piece -0.022678535 0.03479587 -0.010246926 -0.04456495 -0.0432642 -0.032911982 -0.035042297 -0.018175319 -0.017644757 -0.036856472 -0.028690955 -0.039902326 -0.021977292 -0.023453986 -0.043873217 -0.029293157
head -0.031502344 0.027224112 -0.012715203 -0.0137862805 -0.03117494 -0.02114073 -0.024502346 -0.034106933 -0.04254334 -0.038616557 -0.04959023 -0.033131458 -0.025598185 -0.027139008 -0.034645416 -0.041578066
case -0.029180847 0.013592605 -0.0234628 -0.018615425 -0.038079858 -0.024485623 -0.045361828 -0.020536618 -0.013979446 -0.029827712 -0.02976254 -0.030554432 -0.02807752 -0.030853618 -0.02711125 -0.029684775
felt -0.019409113 0.034815516 -0.009747294 -0.020441914 -0.03489996 -0.01832681 -0.017830014 -0.018751442 -0.033271253 -0.024205549 -0.036858175 -0.03421388 -0.035869442 -0.027005602 -0.042975545 -0.021485848
yes -0.025129953 -0.0065317154 -0.0098631345 -0.024118135 -0.028817942 -0.023757536 -0.018828332 -0.018950634 -0.01137675 -0.022191828 -0.034896195 -0.032203794 -0.027220035 -0.03874672 -0.027257646 -0.018940244
liked -0.036611818 -0.005522024 -0.016161015 0.15674677 -0.028713005 -0.0265553 -0.023600359 -0.031303093 -0.031932853 -0.023315048 -0.027175164 0.14926067 -0.03829115 -0.030226601 -0.042483784 -0.0220402
supposed -0.020464111 -0.030717576 -0.012937807 -0.030933574 -0.037696995 -0.020681906 -0.017689407 0.39112988 -0.008968746 -0.024501618 -0.04415399 -0.0235057 -0.036881424 -0.030549528 -0.028792901 -0.027832385
title -0.028543478 -0.030699814 -0.015077486 -0.020165583 -0.026024029 -0.020820277 -0.031565443 -0.04042604 -0.007897261 -0.02416923 -0.027128277 -0.03764597 -0.026780915 -0.023330944 -0.025356628 -0.03290711
couldn't -0.02922068 -0.046706785 -0.022207448 -0.043823075 -0.031561233 -0.021373393 -0.021786546 -0.032625042 -0.009414216 -0.024252873 -0.026497096 -0.038346432 -0.034998894 -0.031929813 -0.029215585 -0.021952216
absolutely -0.040783048 0.11267999 -0.02035941 -0.017789163 -0.026893571 -0.017373204 -0.025584452 -0.03523096 -0.018160399 -0.02358571 -0.034774255 -0.03386723 -0.02910856 -0.03961004 -0.026468538 -0.04136591
white -0.02276702 0.03358854 -0.0285694 -0.015010454 -0.033507556 -0.025032306 -0.04761466 -0.01871009 -0.014156576 -0.03476368 -0.0335567 -0.036054105 -0.028326405 -0.024727825 -0.029090632 -0.01729719
against -0.028401023 0.04018619 -0.011256151 -0.015321786 -0.040321797 -0.018594358 -0.019383287 -0.022212088 -0.017577963 -0.020973813 -0.03306781 -0.025974859 -0.028039375 -0.022848785 -0.034145292 -0.025734112
boy -0.040927183 -0.011489771 -0.018576693 -0.01685447 -0.03879145 -0.018873045 -0.016584458 -0.04445069 -0.008460482 -0.026854187 -0.027542822 -0.03071034 -0.03834827 -0.04261892 -0.029149264 -0.04702238
picture -0.020525843 -0.0066468716 -0.023519803 -0.0215594 -0.027171517 -0.01748639 -0.040671013 -0.029642498 -0.011222135 -0.03798292 -0.026761366 -0.022926847 -0.019646073 -0.03153173 -0.024808899 -0.02380378
sort -0.020432046 0.022076044 -0.025242578 -0.029174043 -0.029311394 -0.047946442 -0.024277914 -0.017708886 -0.017243277 -0.043539774 -0.029620554 -0.0399085 -0.048181653 -0.038564824 -0.038531736 -0.019445084
worse -0.039396442 0.010012317 -0.011564164 -0.02613003 -0.03974271 -0.019628745 -0.019587256 -0.021798575 -0.011936508 -0.02924486 -0.029478677 -0.038546525 -0.018535886 -0.029287968 0.19861144 -0.027294878
certainly -0.019263763 0.05973033 -0.011546325 -0.043924548 -0.0307501 -0.0478457 -0.03448385 -0.018152058 -0.017378915 -0.03881506 -0.042822506 -0.025903285 -0.026805652 -0.04923488 -0.027263569 -0.022149377
went -0.02189794 0.029732917 -0.023374783 -0.018352987 -0.031077476 -0.04259025 -0.020384034 -0.0313505 -0.047982432 -0.025294973 -0.037629865 -0.023350887 -0.021073386 -0.034195878 -0.038789794 -0.019285599
entire -0.01701683 -0.042482506 -0.017382521 -0.016108768 -0.044225812 -0.04860097 -0.037787806 -0.020683028 -0.013464333 -0.020840686 -0.026881306 -0.026025113 -0.030879604 -0.023680838 -0.03485741 -0.031889543
waste -0.017332219 0.010748208 -0.026715744 -0.014013048 0.3769382 -0.0217028 -0.02712262 -0.025114693 -0.006281037 -0.022549873 -0.029754037 -0.02495934 -0.030759977 0.36624035 -0.040167283 -0.019347936
cinema -0.01338474 0.004135452 -0.0110593075 -0.031247044 -0.026132075 -0.035428096 -0.014351374 -0.033958994 -0.015633978 -0.031158313 -0.027690962 -0.03904998 -0.020137845 -0.02848007 -0.0341622 -0.024104424
problem -0.020577073 0.021117415 -0.010441305 -0.01766302 -0.04392477 -0.02288109 -0.025479775 -0.021012198 -0.023163294 -0.02735734 -0.024985531 -0.04092828 -0.022322757 -0.035265695 -0.03563095 -0.018577803
hope -0.020003162 -0.047912814 -0.010826188 -0.018502343 -0.041280556 -0.038952995 -0.03312688 -0.018435355 -0.013567478 -0.0396175 -0.040525973 -0.031825908 -0.03831446 -0.027004309 -0.036864072 -0.025665585
entertaining -0.026223881 -0.04302571 -0.010045074 -0.046008136 -0.033027515 -0.020578131 -0.04837967 -0.019833077 0.1542229 -0.037943337 -0.040943902 -0.02305465 -0.03938553 -0.029101465 -0.041775096 -0.019239714
she's -0.021725107 -0.010800384 -0.011279079 -0.013717308 -0.028399501 -0.021424443 -0.015918951 -0.035830166 -0.018562235 -0.03402661 -0.02885058 -0.023149416 -0.037737645 -0.039115366 -0.025096644 -0.039402794
mr -0.02922546 -0.0186195 -0.009549373 -0.04243095 -0.027986482 -0.017144328 -0.0222628 -0.020321399 -0.0072965003 -0.022989674 -0.040476274 -0.029721875 -0.033259846 -0.027261147 -0.026651172 -0.017972572
overall -0.02305982 -0.013799202 -0.012300182 -0.039054703 -0.04884374 -0.04007425 -0.019914938 -0.028203739 -0.021896292 -0.024470404 -0.048113372 -0.023713756 -0.02222414 -0.02971127 -0.03742263 -0.03172918
evil -0.03275155 -0.008145928 -0.0116996765 -0.046441473 -0.049048435 -0.016089667 -0.026214413 -0.046462547 -0.031064345 -0.025671255 -0.02457482 -0.03579573 -0.03696846 -0.022180608 -0.024149386 -0.022501325
called -0.034408335 -0.03709451 -0.019348895 -0.048016287 -0.04219927 -0.038853683 -0.022666771 -0.017290644 -0.010352585 -0.037896477 -0.033622183 -0.028182967 -0.024713904 -0.032625638 -0.026694627 -0.042392194
loved -0.03405579 -0.046580877 -0.025940968 0.22198766 -0.028010745 0.15998639 -0.019416304 -0.021010233 0.06894445 -0.02457498 -0.043718684 -0.023265518 -0.033667754 -0.02411061 -0.033368144 -0.018824121
based -0.014981082 -0.034354284 -0.009594361 -0.018513054 -0.026374247 -0.016013503 -0.015218573 -0.046944965 -0.030868305 -0.030236924 -0.0424032 -0.029489052 -0.020532856 -0.049463537 -0.030267624 -0.020159379
oh -0.016707081 -0.032003738 -0.012558542 -0.01777291 0.2632875 -0.015662244 -0.032282777 -0.024871064 -0.01778987 -0.026796306 -0.035285916 -0.033286277 -0.029122902 -0.030821808 -0.027742641 -0.049907554
several -0.019919232 -0.03361944 -0.011966129 -0.02128573 -0.045663238 -0.016453115 -0.0213614 -0.017488157 -0.008204118 -0.029040348 -0.043095462 -0.020985587 -0.04433285 -0.03798198 -0.026768355 -0.034293223
fans -0.018153848 -0.032913137 -0.020237055 -0.022448175 -0.035199713 -0.028316813 -0.022559127 -0.029520882 0.08371069 -0.025712872 -0.024934417 -0.02491411 -0.02576251 -0.022207627 -0.034155264 -0.017757563
mother -0.038680304 -0.04371934 -0.019178834 -0.012041198 -0.044481553 -0.037304092 -0.015524062 -0.022426557 -0.03430281 -0.042134188 -0.028427267 -0.039338563 -0.02575833 -0.025644584 -0.023987621 -0.042136468
drama -0.016724788 -0.023707284 -0.012164091 -0.030971495 -0.02846135 -0.02307695 -0.03093784 -0.018584466 -0.040876806 -0.021579415 -0.031482004 -0.03433354 -0.027954327 -0.03347566 -0.028717501 -0.023244595
beginning -0.01728724 0.04174627 -0.01145605 -0.017352909 -0.027909735 -0.037351884 -0.021768527 -0.027960744 -0.020599592 -0.02406065 -0.026323566 -0.03215698 -0.024032217 -0.04079063 -0.025854083 -0.021491617
killer -0.018719602 0.003127174 -0.024234418 -0.018912368 -0.03221439 -0.02226095 -0.02047403 -0.029869696 -0.008754756 -0.03853062 -0.037164845 -0.026808785 -0.026471125 -0.044919588 -0.033499345 -0.019491272
lives -0.048219528 -0.013132192 -0.040643074 -0.0138113545 -0.037842114 0.16096072 -0.027544942 -0.046979334 -0.011041347 -0.038491454 -0.02600795 -0.03934195 -0.022320628 -0.029393008 -0.026491333 -0.031730533
5 -0.022232069 0.015079634 -0.023246193 -0.016801722 -0.034079768 -0.023181288 -0.028264487 -0.02552783 -0.0074904673 -0.04622333 -0.0461167 -0.035036422 -0.026316661 -0.02524872 -0.025069484 -0.02545943
direction -0.04062339 -0.026680995 -0.017486572 -0.024740132 -0.046060216 -0.018769244 -0.019181727 -0.016648466 -0.021963775 -0.022958918 -0.03105705 -0.04443686 -0.026000692 -0.036009844 -0.0418661 -0.022866782
care -0.04623982 -0.047861755 -0.04841969 -0.021797681 -0.02743671 -0.019116033 -0.027838409 -0.023497682 -0.012816771 -0.022334183 -0.027025886 -0.032735907 -0.022784047 -0.026544703 -0.026269961 -0.027538843
already -0.048914112 0.010349978 -0.02810601 -0.030897845 -0.03182205 -0.044338442 -0.035532854 -0.026640713 -0.011074245 -0.03532028 -0.03452528 -0.024667516 -0.028268201 -0.027388416 -0.02985146 -0.03510655
becomes -0.04943782 0.009750865 -0.02755319 -0.011545657 -0.034903694 -0.022153243 -0.016290583 -0.028160164 -0.020991126 -0.026756437 -0.027084624 -0.03603369 -0.025869057 -0.046023812 -0.045446157 -0.045498457
laugh -0.024955263 0.033893373 -0.017430894 -0.032501414 -0.027588408 -0.01747306 -0.023804013 -0.023739068 -0.010523964 -0.0376193 -0.039577853 -0.029055325 -0.03054289 -0.028142996 -0.029551852 -0.017652031
example -0.020220965 -0.007230401 -0.030766904 -0.02039125 -0.02781312 -0.022662988 -0.015895529 -0.016550697 -0.010484757 -0.023670197 -0.025689945 -0.027806783 -0.03387644 -0.029526226 -0.02966684 -0.027842376
friend -0.022010088 0.0048316494 -0.0121993 -0.01663436 -0.030651795 -0.03321595 -0.036060512 -0.028482033 -0.011968152 -0.03277237 -0.033121686 -0.027081963 -0.037092883 -0.03742999 -0.033457376 -0.018647444
dark -0.02415005 -0.0373587 -0.013435426 -0.019015105 -0.026637265 -0.021320209 -0.028427208 -0.029965734 -0.016480098 -0.03067517 -0.030240392 -0.026486656 -0.029096544 -0.0334327 -0.042270586 0.15791862
despite -0.029951513 0.0065450342 -0.009802401 -0.019538183 -0.039707374 -0.023943437 -0.046833396 -0.021243552 -0.0078031905 -0.024853468 -0.030597426 -0.023405029 -0.046117604 -0.024913412 -0.0325456 -0.03977995
under -0.020025264 -0.0022820942 -0.011931763 -0.014274001 -0.030713225 -0.026900936 -0.02682408 -0.028013397 -0.008704331 -0.045190394 -0.024357032 -0.02218858 -0.032938562 -0.027973944 -0.036788113 -0.015437652
seemed -0.017278792 0.03674659 -0.01358165 -0.022843674 -0.04316542 -0.016117282 -0.020650936 -0.02819848 -0.04512043 -0.024620147 -0.02674002 -0.030882033 -0.032529075 -0.03432815 -0.038303588 -0.045850277
throughout -0.030956363 0.015414108 -0.014276456 -0.0051800986 -0.039418604 -0.01848844 -0.03314457 -0.021751624 -0.03094852 -0.032525342 -0.04304658 -0.033988573 -0.03030706 -0.03129238 -0.025157928 -0.024681784
4 -0.031846717 -0.040673874 -0.035930954 -0.025194818 -0.026371451 -0.019087583 -0.01723476 -0.028197337 -0.012770068 -0.027169121 -0.048106756 -0.039864633 -0.030297233 -0.027271988 -0.035526767 -0.020277437
turn -0.024396196 0.031099048 -0.022764506 -0.02130092 -0.03243566 -0.025702875 -0.03366524 -0.019858759 -0.01953399 -0.027781766 -0.02826563 -0.022367088 -0.024698798 -0.023250602 -0.04609033 -0.021173041
unfortunately -0.01599273 -0.015044548 -0.015140582 -0.026490932 -0.04895543 -0.035302747 -0.02002759 -0.017390229 -0.008770342 -0.021811556 -0.04858711 -0.031139815 -0.039953984 -0.0405843 -0.028395044 -0.018686734
wanted -0.012664392 0.027071308 -0.03424062 -0.019510062 -0.03856074 -0.018720329 -0.044868972 -0.027556816 -0.002838342 -0.04330493 -0.03436128 -0.027938146 -0.023566838 -0.025029253 -0.036976073 -0.019800715
i'd -0.019991295 -0.03423952 -0.027478037 -0.03764814 -0.027345931 -0.017316489 -0.025102535 -0.037061248 -0.012781902 -0.043782245 -0.049388994 -0.031840097 -0.02794206 -0.027983509 -0.035476185 -0.033339977
 -0.03576497 -0.049919497 -0.04796145 -0.03368821 -0.02875267 -0.035590947 -0.029107766 -0.03717793 -0.012732387 -0.034052137 -0.02160428 -0.026098957 -0.031728808 -0.02418524 -0.031900898 -0.024780802
children -0.029527264 -0.046371903 -0.042161215 -0.017984258 -0.029244743 -0.01633849 -0.01864208 -0.0432441 -0.013915934 -0.030252617 -0.03191446 -0.040000927 -0.02269294 -0.025245477 -0.026836116 -0.02506343
final -0.034118786 -0.014079548 -0.034791194 -0.016133368 -0.04469626 -0.024947051 -0.024894455 -0.026139652 -0.017070321 -0.037810326 -0.026058836 -0.02762378 -0.022357184 -0.027830323 -0.027224792 -0.028520001
fine -0.029789146 -0.028021133 -0.039745174 -0.02219859 -0.03760023 0.16641453 -0.029950196 -0.022529414 -0.0071732653 -0.024958873 -0.026083509 -0.028935872 -0.021043008 -0.0353884 -0.025356963 -0.023949662
history -0.02997424 -0.014034651 -0.015309011 -0.018866539 -0.046730854 -0.035576057 -0.019425087 -0.023327736 -0.0075137727 -0.028338365 -0.03342859 -0.02433835 -0.0349791 -0.041356508 -0.03249255 -0.03182032
amazing -0.02561648 -0.04420824 -0.025702879 -0.028979886 -0.03178539 0.3425171 -0.020529402 -0.018479945 -0.02833432 -0.036466077 -0.033413082 -0.032290217 -0.027034486 -0.024065563 -0.03734405 -0.017947797
sound -0.020300454 0.02937467 -0.024361908 -0.013272804 -0.031719834 -0.04545126 -0.018097676 -0.03160595 -0.015546285 -0.022608802 -0.026810542 -0.024314292 -0.028732503 -0.03318186 -0.035189293 -0.02166313
